{"fc1.weight": [[0.24332000315189362, -0.24129000306129456, 0.1184300035238266, -0.19614000618457794, -0.1346299946308136, 0.6820799708366394, -0.01955999992787838, -0.11438000202178955, -0.8673200011253357, -0.0782100036740303, 0.2474599927663803, -0.12199000269174576, 0.2227099984884262, 0.2884899973869324, -0.007960000075399876, -0.9156000018119812, 0.11235000193119049, -0.6613399982452393, -0.40775999426841736, -0.1389400064945221, 0.21212999522686005, -0.20565000176429749, -0.9208800196647644, -0.2994999885559082, 0.22040000557899475, 0.14736999571323395, -0.3058899939060211, -0.2776699960231781, 0.23736999928951263, -1.0082299709320068, -0.13837000727653503, -0.32256001234054565, -0.646369993686676, 0.19760000705718994, 0.35479000210762024, -0.18628999590873718, 0.02426999993622303, -0.1321299970149994, 0.06387999653816223, -0.05463999882340431, -0.061400000005960464, 0.16993999481201172, 0.07220999896526337, 0.10907000303268433, -0.013269999995827675, -0.07257000356912613, 0.12177000194787979, -0.005100000184029341, 0.0481100007891655, -0.21661999821662903, 0.0508899986743927, -0.038100000470876694, 0.08634000271558762, 0.2293899953365326, -1.8707900047302246, -1.0544999837875366], [0.12976999580860138, -0.2469400018453598, 0.2115200012922287, 0.3549500107765198, 0.11388000100851059, 0.35861000418663025, -0.5045199990272522, -0.8489599823951721, -0.016669999808073044, -0.07174000144004822, -0.08208999782800674, 0.24547000229358673, 0.2368900030851364, -1.1446399688720703, 0.35580000281333923, 0.15992000699043274, -0.1689399927854538, 0.058070000261068344, -0.14902999997138977, -0.8881700038909912, 0.031190000474452972, 0.16141000390052795, 0.20122000575065613, -0.032030001282691956, 0.45113998651504517, -0.750819981098175, 0.5723699927330017, 0.03922000154852867, -0.4393500089645386, -0.3903599977493286, 0.587369978427887, -0.32712000608444214, -0.13795000314712524, 0.1552100032567978, 0.2785800099372864, -0.5548800230026245, -0.144679993391037, 0.09116999804973602, -0.1977500021457672, 0.11745999753475189, 0.08786000311374664, -0.17136000096797943, 0.24828000366687775, 0.01998000033199787, -0.2220900058746338, -0.060600001364946365, -0.030389999970793724, -0.1541299968957901, -0.10311999917030334, 0.11939000338315964, -0.23058000206947327, 0.07875999808311462, 0.1760299950838089, -0.1144300028681755, -1.6564199924468994, -1.216380000114441], [0.18398000299930573, 0.12272000312805176, 0.28790000081062317, 0.3854900002479553, 0.08493000268936157, 0.32554998993873596, 0.120899997651577, -0.33112001419067383, 0.017880000174045563, 0.84170001745224, -0.1136699989438057, -0.20027999579906464, -0.45427000522613525, 0.41453999280929565, 0.09126999974250793, 1.1699199676513672, -0.05042999982833862, -0.42024001479148865, -0.11845999956130981, -0.11736000329256058, -0.20461000502109528, 1.0990099906921387, -0.5214700102806091, -0.2041199952363968, -0.1216999962925911, -0.21536000072956085, 0.40619999170303345, 0.7104799747467041, 0.2998499870300293, 0.1205499991774559, -0.2734000086784363, 0.09988000243902206, -0.2750700116157532, 0.5743200182914734, -0.10181000083684921, 0.16089999675750732, 0.11958000063896179, -0.14133000373840332, -0.08511999994516373, -0.003819999983534217, 0.04926000162959099, -0.3618600070476532, 0.07012999802827835, -0.14665000140666962, 0.042169999331235886, -0.3412199914455414, -0.20761999487876892, -0.2200700044631958, -0.04002999886870384, -0.17166000604629517, -0.14066000282764435, 0.025219999253749847, -0.09070000052452087, 0.043209999799728394, -1.6304899454116821, -1.1476600170135498], [-0.1290999948978424, -0.03465000167489052, 0.267300009727478, -0.4082300066947937, -0.08995000272989273, 0.3297800123691559, 0.2696000039577484, 0.37608999013900757, -0.24778999388217926, -0.26438000798225403, 0.5359899997711182, 0.11906000226736069, 0.8039100170135498, -0.049320001155138016, -0.5351700186729431, 0.292930006980896, 0.29791998863220215, -0.04473999887704849, 0.5614100098609924, 0.8626000285148621, 0.6935799717903137, 0.8113200068473816, -0.19032999873161316, -0.3030399978160858, 0.2989799976348877, -0.5314300060272217, 0.28575000166893005, 0.278329998254776, -0.45208001136779785, -0.11965999752283096, -0.2693699896335602, 0.41881999373435974, 0.43654999136924744, 0.8750600218772888, -0.09763000160455704, -0.02522999979555607, -0.22200000286102295, -0.6527600288391113, -0.10488999634981155, -0.006399999838322401, 0.1736299991607666, -0.13919000327587128, -0.30807000398635864, 0.3290799856185913, -0.36719000339508057, -0.057840000838041306, -0.10582999885082245, -0.010449999943375587, -0.2629700005054474, -0.2739500105381012, -0.5796800255775452, -0.13874000310897827, -0.33698999881744385, -0.07282999902963638, -1.2401100397109985, -1.2831499576568604], [0.5290700197219849, 0.31365999579429626, 0.1930299997329712, 0.03691000118851662, -0.414139986038208, 0.41907998919487, -0.005950000137090683, -0.03581999987363815, 0.4492399990558624, -0.17180000245571136, -0.5980299711227417, -0.05136999860405922, 0.3064599931240082, -0.2541700005531311, 0.5032200217247009, -0.7677299976348877, 0.12255000323057175, 0.04506000131368637, -0.1427299976348877, -0.5240100026130676, -0.8788599967956543, -0.4741399884223938, 0.32670000195503235, 0.5500500202178955, -0.4622899889945984, -0.7845100164413452, 0.07017000019550323, -0.48350998759269714, 0.2051900029182434, -0.14408999681472778, 0.07423999905586243, 0.42344000935554504, 0.2772899866104126, 0.04455000162124634, 0.6607000231742859, -0.5525799989700317, -0.06604000180959702, -0.09989000111818314, 0.01727999933063984, 0.11334999650716782, 0.17925000190734863, 0.02102000080049038, -0.0923599973320961, -0.13892999291419983, 0.03499000146985054, -0.06080000102519989, -0.024960000067949295, 0.013319999910891056, 0.1637199968099594, 0.012849999591708183, -0.20719000697135925, -0.029929999262094498, -0.3174999952316284, -0.2399500012397766, -1.335819959640503, -1.1674699783325195], [0.25722000002861023, -0.04848000034689903, -0.6680099964141846, 0.2608399987220764, -0.6304200291633606, 0.6421200037002563, 0.3454500138759613, -0.049400001764297485, 0.12004999816417694, -0.7063400149345398, -0.8149300217628479, -0.2743000090122223, -0.444489985704422, 0.056779999285936356, -0.05747000128030777, 0.15553000569343567, -1.239609956741333, -0.008310000412166119, 0.09927000105381012, 0.12932999432086945, 0.14068999886512756, 0.07673999667167664, -0.35041001439094543, -0.9231699705123901, -0.17955000698566437, 0.2214599996805191, -0.2636899948120117, 0.15018999576568604, -0.15174999833106995, -0.07131999731063843, -0.5243200063705444, 0.7014899849891663, -0.1391099989414215, -0.12958000600337982, -0.02126000076532364, -0.025750000029802322, -0.1157900020480156, 0.05268000066280365, -0.37841999530792236, -0.3452799916267395, -0.23037000000476837, -0.12791000306606293, -0.09830000251531601, 0.18328000605106354, -0.25512999296188354, -0.5329800248146057, 0.02459000051021576, -0.0313199982047081, -0.31617000699043274, -0.35637998580932617, 0.0451200008392334, -0.12870000302791595, 0.10611999779939651, 0.023499999195337296, -1.0619100332260132, -0.8685500025749207], [-0.044119998812675476, 0.18991999328136444, 0.21283000707626343, -0.6687999963760376, 0.40285998582839966, 0.29541999101638794, -0.1046999990940094, -0.14699000120162964, 0.9350299835205078, 0.10745999962091446, 1.4710400104522705, 0.08760999888181686, 0.3553999960422516, -0.11755000054836273, 0.12875999510288239, 0.6989499926567078, 0.1584399938583374, 0.36017000675201416, -0.2809799909591675, 0.3541199862957001, 0.6763399839401245, -0.11219999939203262, 0.7008299827575684, -0.15575000643730164, 0.11575999855995178, -0.07709000259637833, 0.26034000515937805, -0.20841999351978302, -0.04871999844908714, 0.3317500054836273, -0.35635998845100403, 0.5689299702644348, -0.09335000067949295, 0.08839999884366989, -0.04197999835014343, -0.1660899966955185, 0.12728999555110931, 0.04585999995470047, -0.57218998670578, 0.16759000718593597, -0.10627999901771545, -0.4093500077724457, 0.22550000250339508, 0.1185699999332428, 0.015410000458359718, 0.13616999983787537, -0.13535000383853912, -0.17798000574111938, -0.2547999918460846, -0.22089999914169312, 0.14528000354766846, -0.31251001358032227, 0.3222000002861023, 0.2688499987125397, -1.3419300317764282, -0.8287400007247925], [-0.507860004901886, -0.7407799959182739, 0.42928001284599304, -0.9088699817657471, 0.292959988117218, 0.12358000129461288, -0.3483099937438965, -0.028540000319480896, -0.4723699986934662, 0.9879500269889832, 0.5468000173568726, 0.0055599999614059925, 0.31369999051094055, 0.09497000277042389, -0.14416000247001648, 0.029239999130368233, 0.24031999707221985, -0.0488400012254715, 0.19739000499248505, 0.3682299852371216, 0.2797499895095825, -0.0013099999632686377, 0.8951600193977356, -0.4719400107860565, 0.38444000482559204, -0.1546500027179718, 0.21209000051021576, -0.5900300145149231, 0.11535000056028366, -0.42879000306129456, 0.28619998693466187, 0.11562000215053558, -0.7577599883079529, 0.8598700165748596, -0.5607600212097168, -0.26927998661994934, -0.3167400062084198, -0.16509999334812164, -0.1455399990081787, -0.29322999715805054, 0.16165000200271606, 0.3130800127983093, -0.2637700140476227, -0.39142999053001404, 0.27880001068115234, -0.3011299967765808, -0.45737001299858093, -0.46435999870300293, 0.008299999870359898, 0.42361998558044434, 0.15952999889850616, 0.016200000420212746, -0.6029300093650818, -0.024529999122023582, -1.512910008430481, -0.8607699871063232], [-0.022779999300837517, 0.22176000475883484, -0.4164600074291229, -0.2707499861717224, 0.7702299952507019, 0.4259200096130371, -0.10818000137805939, 0.261709988117218, 0.12335000187158585, 0.4402100145816803, -0.1413400024175644, -0.12283000349998474, 0.11649999767541885, -0.4169299900531769, 0.9234499931335449, -0.19503000378608704, -0.22892999649047852, 0.09832999855279922, -0.01498000044375658, 0.17835000157356262, 0.9756900072097778, -0.0752900019288063, 0.15125000476837158, -0.0790800005197525, 0.4076099991798401, 0.21615999937057495, 1.1038199663162231, 0.3550800085067749, 0.2755799889564514, -0.1849599927663803, 0.25426000356674194, 0.1456499993801117, 0.6029199957847595, 0.25268998742103577, 0.8260599970817566, -0.24371999502182007, -0.14957000315189362, -0.04376000165939331, -0.0027000000700354576, 0.12251000106334686, -0.061159998178482056, -0.3594000041484833, -0.14143000543117523, -0.5048499703407288, -0.12586000561714172, -0.10470999777317047, -0.20148999989032745, -0.2729800045490265, -0.4323999881744385, -0.22253000736236572, -0.14410999417304993, 0.011009999550879002, -0.1445000022649765, 0.22262999415397644, -1.214669942855835, -0.9667099714279175], [-0.06247999891638756, -0.36601001024246216, -0.31428998708724976, 0.27636000514030457, 0.1526300013065338, -0.2963699996471405, 0.2438499927520752, 0.16841000318527222, -0.180759996175766, 0.46112000942230225, 0.3421800136566162, -0.08363000303506851, -0.10739000141620636, -0.6431900262832642, -0.9142699837684631, -1.1203900575637817, -0.66211998462677, -0.05965999886393547, -0.1282999962568283, 0.15571999549865723, -0.07467000186443329, 0.2789599895477295, -0.4445500075817108, -0.16485999524593353, 0.12732000648975372, 0.022709999233484268, -0.4005100131034851, -0.004029999952763319, 0.1161699965596199, -0.5839400291442871, 0.330020010471344, -0.23255999386310577, 0.15795999765396118, 0.024219999089837074, -0.20494000613689423, 0.6058800220489502, 0.23590999841690063, -0.24426999688148499, 0.10993999987840652, -0.004459999967366457, 0.09837000072002411, -0.04259999841451645, -0.28508999943733215, 0.07247000187635422, -0.031279999762773514, -0.09245999902486801, 0.14523999392986298, 0.1756100058555603, -0.02208000048995018, -0.054019998759031296, -0.37182000279426575, -0.3228299915790558, 0.07107000052928925, 0.0010100000072270632, -1.4097599983215332, -1.0509699583053589], [0.2903999984264374, -0.1737699955701828, -0.03598000109195709, -0.034040000289678574, -0.013740000315010548, 0.9746999740600586, 0.794189989566803, 0.3336400091648102, -0.3495500087738037, -0.1614599972963333, 1.0766899585723877, 0.3937700092792511, -0.1289599984884262, 0.8316900134086609, -0.3063899874687195, 0.7311400175094604, 0.08263000100851059, -0.11305999755859375, -0.17419999837875366, 0.05846000090241432, 1.0204700231552124, 0.14472000300884247, -0.28224000334739685, -0.11791999638080597, 0.09164000302553177, 0.85944002866745, 0.05383000150322914, 0.810949981212616, 0.32927000522613525, 0.40852001309394836, 0.2223999947309494, 0.155689999461174, -0.25407999753952026, 0.13749000430107117, -0.31738999485969543, 0.3870300054550171, -0.05490000173449516, -0.05494000017642975, 0.21277999877929688, -0.07363999634981155, 0.01679999940097332, -0.26131999492645264, -0.05127999931573868, -0.0370899997651577, 0.062380000948905945, -0.14904999732971191, 0.009340000338852406, 0.15800000727176666, -0.23890000581741333, 0.1173200011253357, 0.044360000640153885, 0.09156999737024307, 0.04538999870419502, 0.06182999908924103, -1.7923200130462646, -0.7237300276756287], [0.2765499949455261, 0.8383600115776062, 0.36507999897003174, -0.9100499749183655, -0.030780000612139702, 0.20494000613689423, -0.022520000115036964, 0.19097000360488892, 0.5196599960327148, 0.20074999332427979, 0.060520000755786896, -0.2696700096130371, 0.4975000023841858, 0.32030001282691956, 0.6508499979972839, 0.4602299928665161, 0.9538000226020813, 0.07998000085353851, 0.25014999508857727, 0.481469988822937, 0.6030099987983704, 0.6482800245285034, 0.2629300057888031, 0.7268000245094299, -0.005690000019967556, 0.4700999855995178, 0.5053200125694275, 0.28481000661849976, 0.5798199772834778, 0.20356999337673187, 0.19960999488830566, 0.15302999317646027, 0.04851999878883362, 0.06821999698877335, 0.33212000131607056, 0.10453999787569046, -0.3883799910545349, 0.07523000240325928, 0.29120001196861267, 0.09171999990940094, 0.20358000695705414, -0.0926399976015091, 0.30316001176834106, 0.0623599998652935, 0.3972899913787842, 0.4808099865913391, 0.32969000935554504, 0.3202199935913086, 0.10903999954462051, 0.3822399973869324, 0.17465999722480774, 0.09815999865531921, 0.28916001319885254, 0.042569998651742935, -1.5386899709701538, -0.11170999705791473], [-0.6462200284004211, 0.04109000042080879, 0.1398099958896637, 0.07644999772310257, 0.33296999335289, 0.20773999392986298, 0.024219999089837074, 0.5618399977684021, -0.5410000085830688, 0.0037400000728666782, 0.12281999737024307, 0.21825000643730164, 0.07981999963521957, -0.17820000648498535, 1.10371994972229, -0.01054999977350235, -0.5693699717521667, 0.09249000251293182, -0.1529799997806549, -0.08607999980449677, -0.07242999970912933, 0.4799500107765198, -0.0015699999639764428, 0.18550999462604523, 0.7549999952316284, 0.056120000779628754, 0.044509999454021454, 0.009940000250935555, 1.0759400129318237, -0.11231999844312668, 0.3668999969959259, -0.0264699999243021, -0.20679999887943268, 0.27612000703811646, 0.1848900020122528, 0.9428099989891052, -0.28064000606536865, -0.013410000130534172, 0.04628000035881996, -0.26388999819755554, -0.11010000109672546, -0.05417000129818916, -0.05962999910116196, -0.05561000108718872, -0.34937000274658203, -0.059390000998973846, 0.17942999303340912, -0.4173800051212311, -0.18663999438285828, 0.3388200104236603, -0.5952600240707397, -0.530780017375946, -0.08068999648094177, -0.19041000306606293, -1.8509600162506104, -1.2220300436019897], [-0.9241099953651428, -0.7108500003814697, 0.09401000291109085, -0.6579300165176392, 0.0048699998296797276, 0.1919499933719635, -0.4831799864768982, -0.7796599864959717, -0.30324000120162964, 0.03993000090122223, -0.9090399742126465, 0.29256999492645264, -0.23615999519824982, -0.4214800000190735, -0.38304001092910767, -0.303600013256073, -0.1646299958229065, -0.08872999995946884, 0.41266998648643494, -0.9118199944496155, -0.6639800071716309, -0.3086700141429901, -0.30375999212265015, -0.5112900137901306, 0.7992600202560425, -0.12812000513076782, -0.28540998697280884, -0.2778399884700775, -0.16665999591350555, -0.4209800064563751, -0.36827999353408813, 0.3440200090408325, -0.5139099955558777, -0.36454999446868896, 0.20083999633789062, 0.5339300036430359, 0.33816999197006226, -0.08449999988079071, -0.20204000174999237, -0.367110013961792, 0.34657999873161316, 0.12872999906539917, 0.25071999430656433, 0.20544999837875366, -0.23954999446868896, 0.0994499996304512, -0.44982999563217163, -0.07985000312328339, 0.5268300175666809, -0.01696000061929226, -0.11184000223875046, -0.12090999633073807, -0.15214000642299652, -0.1837500035762787, -1.6916699409484863, -0.9177500009536743], [-0.04117000102996826, -0.4492500126361847, 0.45028001070022583, 0.25429001450538635, 0.029899999499320984, -0.4186300039291382, 0.20374999940395355, 0.5862399935722351, 0.342739999294281, -0.37654000520706177, 0.2533000111579895, -0.05561999976634979, 0.9423400163650513, 0.3714599907398224, -0.23116999864578247, 0.4308899939060211, -0.05378999933600426, -0.21347999572753906, -0.18252000212669373, 0.8120800256729126, 0.124269999563694, -0.001820000004954636, -0.32774999737739563, 0.36090001463890076, 0.5343300104141235, 0.7722799777984619, 1.0071099996566772, 0.15056000649929047, 0.32565000653266907, -0.5685700178146362, -0.6136699914932251, 0.49514999985694885, 0.14831000566482544, 0.94718998670578, 0.44262000918388367, 0.037470001727342606, -0.185139998793602, -0.10304000228643417, -0.35833001136779785, -0.011579999700188637, -0.09290999919176102, 0.14630000293254852, 0.060989998281002045, 0.21839000284671783, 0.49285998940467834, -0.14555999636650085, 0.09404999762773514, 0.22341999411582947, 0.10515999794006348, 0.02181999944150448, -0.1833299994468689, 0.03246000036597252, -0.5811600089073181, -0.22440999746322632, -1.5399800539016724, -0.8238700032234192], [-0.3086000084877014, -0.2416599988937378, 0.013150000013411045, 0.8717300295829773, -0.18156999349594116, 0.2062699943780899, -0.12133000046014786, -0.9599999785423279, 0.3632600009441376, -0.016330000013113022, -0.2883000075817108, -0.2318599969148636, -0.008899999782443047, -0.20090000331401825, -0.8848999738693237, -0.2940100133419037, 0.45502999424934387, -0.19830000400543213, 0.06334000080823898, -0.5249000191688538, 0.37334001064300537, -0.6278200149536133, -0.38225001096725464, 0.12711000442504883, -0.5678300261497498, 0.04174000024795532, 0.13539999723434448, 0.05776999890804291, -0.023019999265670776, -0.20701999962329865, 0.2007399946451187, 0.278219997882843, 0.3135699927806854, -0.4834100008010864, -0.29205000400543213, -0.25248000025749207, -0.25784000754356384, -0.1298000067472458, -0.003100000089034438, 0.21979999542236328, -0.0839800015091896, 0.07915999740362167, -0.11663000285625458, -0.1653199940919876, -0.10340999811887741, 0.008449999615550041, 0.03894000127911568, -0.06437999755144119, 0.18945999443531036, 0.2546499967575073, -0.22133000195026398, -0.04297000169754028, -0.05536999925971031, -0.2559800148010254, -2.0057899951934814, -1.2499200105667114], [1.3906300067901611, -0.08092000335454941, 0.5754899978637695, 0.31182000041007996, -0.3699699938297272, -0.4537700116634369, 0.004989999812096357, 0.6922900080680847, 0.12862999737262726, -0.645389974117279, -0.3443000018596649, -0.49514999985694885, 0.0029899999499320984, -0.6124100089073181, 0.2912600040435791, -0.26482999324798584, -0.249099999666214, -0.5641899704933167, -0.24302999675273895, 0.5310199856758118, 0.1384499967098236, 0.9632999897003174, 0.09982000291347504, 0.022040000185370445, 0.7399700284004211, 0.07316000014543533, -0.6462699770927429, -0.13781000673770905, -0.13782000541687012, 0.18890999257564545, -0.3416599929332733, -0.7576500177383423, -0.15330000221729279, -0.1605599969625473, 0.26934999227523804, 0.506060004234314, -0.185479998588562, -0.11490000039339066, 0.4807499945163727, 0.2243800014257431, 0.05316000059247017, -0.18438999354839325, -0.1407099962234497, -0.12285000085830688, -0.13830000162124634, 0.0716399997472763, 0.29197001457214355, -0.19373999536037445, 0.2855600118637085, -0.1689399927854538, -0.07022000104188919, 0.34341999888420105, -0.19563999772071838, -0.793179988861084, -1.2272800207138062, -0.6684200167655945], [-0.14329999685287476, -0.19604000449180603, -0.22585999965667725, -0.13458000123500824, -0.9728400111198425, 0.8954100012779236, -0.33160001039505005, -0.08149000257253647, 0.6106299757957458, 0.11969000101089478, 0.3059000074863434, -0.15152999758720398, 0.7496700286865234, 0.5024899840354919, 0.5943099856376648, 0.5601999759674072, -0.15804000198841095, 0.7999500036239624, -0.12204000353813171, 0.10790999978780746, 0.39204999804496765, -0.08711999654769897, 0.30608999729156494, 0.6207699775695801, -0.27911999821662903, 0.4078800082206726, 1.082990050315857, -0.48892998695373535, -0.016529999673366547, 0.2252800017595291, 0.5699899792671204, -0.1218700036406517, 0.48583999276161194, 0.3860599994659424, 0.5543000102043152, -0.4238100051879883, -0.07936999946832657, 0.18097999691963196, 0.1614599972963333, -0.6646900177001953, -0.2823199927806854, -0.07081999629735947, 0.10770999640226364, -0.1133200004696846, -0.6629499793052673, -0.26989999413490295, -0.3150399923324585, 0.09787999838590622, 0.23291000723838806, -0.7511699795722961, 0.21969999372959137, -0.475739985704422, 0.13252000510692596, -0.17870000004768372, -1.1303600072860718, -0.8950999975204468], [0.24741999804973602, 0.4549599885940552, 0.22700999677181244, -0.35732001066207886, 0.1966100037097931, 0.30485999584198, -0.08974999934434891, 0.012430000118911266, -0.006149999797344208, -0.22485999763011932, 0.221110001206398, 0.01795000024139881, 0.03826000168919563, -0.9586300253868103, -0.13318000733852386, -0.14674000442028046, 0.31422001123428345, -0.18161000311374664, 0.3138900101184845, 0.42087000608444214, -0.8284900188446045, 0.30219000577926636, 0.1345899999141693, -0.09747999906539917, -0.03863999992609024, 0.25600001215934753, -0.45254001021385193, -1.0490000247955322, -0.27233999967575073, 0.2513999938964844, 0.19915999472141266, -0.18964000046253204, 0.1805499941110611, 0.08151999861001968, -0.7371399998664856, -0.20680999755859375, 0.053300000727176666, -0.09869000315666199, -0.07081999629735947, 0.35749000310897827, 0.012009999714791775, -0.11885999888181686, -0.16954000294208527, -0.04495000094175339, -0.14000000059604645, -0.1564600020647049, 0.12535999715328217, 0.014550000429153442, -0.06007000058889389, 0.12838000059127808, -0.1350100040435791, -0.21222999691963196, 0.06525000184774399, 0.13624000549316406, -1.7731800079345703, -1.146649956703186], [-0.32186999917030334, -0.013919999822974205, -0.02061999961733818, 0.0714699998497963, -0.3914400041103363, 1.5968799591064453, 0.6511099934577942, 0.012590000405907631, 0.22266000509262085, -0.43838998675346375, 0.07924000173807144, 0.3129900097846985, 0.36070001125335693, 1.2001399993896484, -0.21650999784469604, 0.2225400060415268, 1.0183099508285522, 0.4166400134563446, 1.3930799961090088, 0.029419999569654465, 0.21813000738620758, 0.17874999344348907, 0.3676599860191345, 0.14101000130176544, 0.46195998787879944, 0.5245599746704102, -0.2975600063800812, 0.07568000257015228, 0.48984000086784363, -0.3274500072002411, 0.3317900002002716, -0.11924999952316284, -0.29815998673439026, -0.5837900042533875, -0.2851499915122986, -0.341729998588562, -0.20735999941825867, 0.2156199961900711, 0.10892999917268753, -0.06384000182151794, 0.0754299983382225, 0.06312999874353409, 0.0414000004529953, -0.0960799977183342, -0.11520999670028687, -0.4295499920845032, 0.15080000460147858, -0.17746999859809875, -0.25902000069618225, 0.10070999711751938, 0.17534999549388885, 0.10993000119924545, -0.24097000062465668, 0.21496999263763428, -1.2433700561523438, -0.5291399955749512], [0.5217999815940857, -0.13344000279903412, 0.4579299986362457, 0.02102000080049038, 0.32613998651504517, 0.6856600046157837, 0.6028599739074707, 1.171049952507019, 0.9800199866294861, 1.320539951324463, 0.4457100033760071, -0.23475000262260437, -0.03815000131726265, -0.1185000017285347, 0.1960200071334839, -0.2780799865722656, 0.4627400040626526, -0.12897999584674835, -0.2988100051879883, -0.22020000219345093, 0.31011998653411865, 0.3325499892234802, -0.3443300127983093, 0.7014399766921997, -0.1637600064277649, 0.411190003156662, -0.23463000357151031, 0.15105000138282776, 0.22925999760627747, 0.30428001284599304, -0.4042600095272064, 0.06481000036001205, 0.28731998801231384, 0.19564999639987946, -0.3256300091743469, 0.0027799999807029963, -0.024779999628663063, -0.0808200016617775, 0.05741000175476074, -0.22123000025749207, 0.0044999998062849045, -0.08370000123977661, -0.045170001685619354, 0.035760000348091125, -0.2604599893093109, -0.02913999930024147, -0.10997000336647034, -0.10911999642848969, 0.14204999804496765, -0.13785000145435333, 0.054999999701976776, -0.2534700036048889, -0.021139999851584435, -0.259880006313324, -1.6945799589157104, -1.0396599769592285], [-0.34272000193595886, 0.0037299999967217445, -0.5471500158309937, 0.23298999667167664, -0.5088099837303162, -0.9303299784660339, -0.3491300046443939, -0.2518100142478943, -0.6574100255966187, -0.37580999732017517, -0.7507399916648865, -0.008469999767839909, -0.028750000521540642, -0.15117000043392181, -0.7833499908447266, -0.45552000403404236, 0.16140000522136688, 0.16967999935150146, -0.24503999948501587, -0.09402000159025192, -1.13919997215271, -0.012489999644458294, -0.2015099972486496, -0.46241000294685364, -0.17817999422550201, -0.3355399966239929, -0.7374399900436401, -0.21876999735832214, -0.06571000069379807, 0.08060000091791153, -0.20969000458717346, -0.025609999895095825, -0.2715100049972534, -0.37376999855041504, -0.6876000165939331, 0.11574000120162964, 0.09442000091075897, -0.09023000299930573, -0.0636100023984909, 0.03976000100374222, 0.31262001395225525, 0.004139999859035015, 0.16023999452590942, -0.1066100001335144, -0.22269999980926514, 0.01672999933362007, -0.021619999781250954, -0.1358499974012375, 0.09251999855041504, 0.31516000628471375, 0.35436001420021057, 0.12231999635696411, -0.24202999472618103, -0.12580999732017517, -1.6524399518966675, -0.8466699719429016], [-0.2584500014781952, 0.015289999544620514, -0.17013999819755554, -0.017570000141859055, 0.5886300206184387, 0.15128999948501587, -0.2424599975347519, -0.05821000039577484, -0.1319900006055832, 1.345039963722229, -0.07438000291585922, 0.21814000606536865, 0.046300001442432404, -0.050850000232458115, 1.003119945526123, 0.032710000872612, 0.15751999616622925, -0.18107999861240387, 0.07039999961853027, 1.2488399744033813, 0.1033800020813942, -0.18918000161647797, 0.3425599932670593, 0.10571999847888947, 0.4985499978065491, 0.07259000092744827, -0.07430999726057053, 0.17716999351978302, -0.10238000005483627, 0.891510009765625, 0.6962199807167053, 0.033799998462200165, -0.0718500018119812, -0.2842499911785126, 0.04764999821782112, -0.4377799928188324, -0.2500300109386444, 0.06639000028371811, -0.2907100021839142, -0.15267999470233917, -0.056699998676776886, -0.27526000142097473, -0.13907000422477722, -0.3026700019836426, -0.5660600066184998, -0.07372000068426132, 0.0933699980378151, -0.2213200032711029, -0.04543999955058098, -0.07175999879837036, -0.25949999690055847, -0.0560699999332428, 0.05483999848365784, -0.3762499988079071, -1.1736600399017334, -1.159409999847412], [0.246069997549057, 0.48162001371383667, 0.449209988117218, 0.27706000208854675, 0.098130002617836, 0.223130002617836, 0.4495300054550171, 0.4076499938964844, 0.6983000040054321, 0.15265999734401703, 0.33232998847961426, 0.2527500092983246, 0.6740999817848206, 0.39254000782966614, 0.8175899982452393, 0.7032999992370605, 0.5697799921035767, 0.2860200107097626, 0.12578000128269196, 0.14402000606060028, 0.8195800185203552, 0.5629100203514099, 0.5853899717330933, 0.7623999714851379, 0.11558999866247177, 0.2651599943637848, 0.5748000144958496, 0.6430400013923645, 0.11960999667644501, 0.10444000363349915, 0.6488000154495239, 0.7603999972343445, 1.077139973640442, 0.4796999990940094, 0.230880007147789, 0.3131999969482422, -0.030990000814199448, 0.35962000489234924, 0.41043999791145325, 0.16389000415802002, 0.4348900020122528, 0.3003000020980835, 0.34665000438690186, 0.31165000796318054, 0.2684600055217743, 0.25854000449180603, 0.19412000477313995, 0.45956000685691833, 0.27990999817848206, 0.1754399985074997, 0.23156000673770905, 0.34165000915527344, 0.20287999510765076, 0.6264200210571289, -1.2145999670028687, -0.21014000475406647], [0.7162399888038635, -0.5840799808502197, -0.05220000073313713, 0.1534299999475479, -0.6685900092124939, 0.6607300043106079, 0.19171999394893646, -0.2245599925518036, -0.4141699969768524, -0.11891999840736389, -0.8949099779129028, 0.29822999238967896, -0.721750020980835, -0.07067999988794327, -0.14831000566482544, -0.4229699969291687, -0.8583800196647644, -0.5388799905776978, 0.3646700084209442, -0.2805100083351135, -0.2333499938249588, -0.1719599962234497, -1.0138599872589111, -0.04025999829173088, -0.12365999817848206, 0.24050000309944153, 0.29023000597953796, -0.4309299886226654, -0.5276100039482117, 0.31463000178337097, 0.18929000198841095, -0.0627100020647049, -0.41675999760627747, 0.03654000163078308, 0.0076500000432133675, 0.3346500098705292, 0.052469998598098755, -0.0677499994635582, -0.06367000192403793, -0.2402999997138977, 0.06137000024318695, 0.048239998519420624, 0.43046998977661133, 0.1778700053691864, -0.2904599905014038, -0.17790000140666962, 0.09080000221729279, 0.13589000701904297, 0.1677899956703186, -0.01145000010728836, 0.13051000237464905, -0.0228899996727705, 0.17688000202178955, 0.0855100005865097, -1.5192699432373047, -0.9208199977874756], [-0.006940000224858522, -0.6137499809265137, 0.8255800008773804, -0.0919099971652031, -0.9246100187301636, 0.4089300036430359, 0.06341999769210815, -0.24150000512599945, -0.2713100016117096, 0.45903000235557556, 0.1675499975681305, 0.48315998911857605, 0.38896000385284424, 0.1334799975156784, -0.22337999939918518, -0.03248000144958496, 1.0600800514221191, 0.4556399881839752, -0.022299999371170998, -0.2680499851703644, 0.4266200065612793, 0.24993999302387238, 0.8835099935531616, 0.799019992351532, 0.2649799883365631, -0.3436700105667114, 0.4930500090122223, 0.5378999710083008, 0.938730001449585, 0.6647899746894836, 0.6470199823379517, 0.24315999448299408, 0.843559980392456, -0.058490000665187836, -0.30847999453544617, 0.1160999983549118, -0.27090999484062195, -0.035670001059770584, -0.3036099970340729, -0.016459999606013298, -0.09578000009059906, -0.19586999714374542, -0.199070006608963, -0.1829800009727478, 0.18014000356197357, -0.2465600073337555, -0.0272000003606081, -0.19056999683380127, 0.10391999781131744, -0.11232999712228775, -0.12502999603748322, -0.3697499930858612, 0.014010000042617321, -0.12370999902486801, -1.4666399955749512, -0.8827499747276306], [0.5103700160980225, 0.12109000235795975, -0.16503000259399414, -0.355459988117218, -0.2505300045013428, -0.3128499984741211, -0.18940000236034393, 0.09256000071763992, -0.036979999393224716, -0.32076001167297363, -0.37303000688552856, 0.1799200028181076, 0.5659800171852112, 0.9914699792861938, 1.1505500078201294, 1.0712900161743164, 0.7479400038719177, 0.06488999724388123, -0.0408799983561039, -0.09121000021696091, -0.17143000662326813, -0.06491000205278397, 0.2316100001335144, -0.062780000269413, -0.5536500215530396, 0.24698999524116516, 0.02304000034928322, 0.011529999785125256, -0.2204499989748001, 0.5485699772834778, -0.09452000260353088, 0.04039999842643738, -0.13338999450206757, -0.23976999521255493, 0.040860000997781754, -0.4559299945831299, -0.22573000192642212, -0.24323999881744385, -0.14259999990463257, 0.004769999999552965, -0.06696999818086624, -0.2763899862766266, -0.14283999800682068, -0.20044000446796417, -0.15810999274253845, -0.0872500017285347, -0.20555999875068665, -0.121799997985363, -0.017260000109672546, -0.16714000701904297, -0.0778300017118454, -0.3268600106239319, -0.18298999965190887, -0.19905999302864075, -1.1512500047683716, -1.3071800470352173], [0.0865899994969368, 0.6369400024414062, -0.14199000597000122, -0.7153900265693665, -0.46476998925209045, -0.5021899938583374, -0.06949000060558319, -0.7454000115394592, 0.02913999930024147, -0.4181100130081177, 0.13906000554561615, -0.1531900018453598, 0.20023000240325928, -0.24815000593662262, -0.502839982509613, -0.8086900115013123, 0.03036000020802021, 0.5203700065612793, 0.6174600124359131, -0.590969979763031, -0.579770028591156, -0.37571999430656433, 0.0675399973988533, -0.40977001190185547, -0.3133299946784973, -0.0784199982881546, -0.12841999530792236, 0.6924800276756287, -0.3290799856185913, -0.6789900064468384, 0.5621799826622009, 0.22814999520778656, -0.5228800177574158, 0.42122000455856323, 0.5920600295066833, -0.129380002617836, -0.04196999967098236, 0.4757300019264221, -0.39079999923706055, -0.1907700002193451, 0.2798300087451935, 0.003819999983534217, 0.17102999985218048, 0.1567700058221817, 0.020819999277591705, -0.27967000007629395, 0.07215999811887741, -0.22928999364376068, 0.19527000188827515, -0.10106000304222107, -0.0272000003606081, -0.227960005402565, 0.461870014667511, 0.22136999666690826, -1.5194400548934937, -0.569100022315979], [0.6131799817085266, 0.013770000077784061, -0.20716999471187592, -0.4256199896335602, -0.4379799962043762, -0.2838500142097473, 0.007910000160336494, -0.1856900006532669, 0.13130000233650208, -1.1414799690246582, 0.026410000398755074, 0.3184800148010254, -0.3522399961948395, 0.12404999881982803, -0.7770799994468689, -0.056290000677108765, -0.47172999382019043, -0.03765000030398369, 0.2049199938774109, -0.9775400161743164, -0.18474000692367554, 0.1986600011587143, -0.2222999930381775, -0.38708001375198364, -0.3578900098800659, 0.25286000967025757, -0.2186799943447113, -0.3355799913406372, 0.23077000677585602, -0.8018400073051453, -1.0345799922943115, -0.050269998610019684, 0.07083000242710114, -0.16946999728679657, -0.0701799988746643, 0.4589399993419647, 0.09154000133275986, 0.215829998254776, 0.05045999959111214, 0.18073000013828278, 0.046160001307725906, -0.27605000138282776, 0.037379998713731766, -0.19717000424861908, -0.023730000481009483, 0.1182899996638298, 0.26475998759269714, 0.05852000042796135, -0.029020000249147415, -0.26232001185417175, -0.2346400022506714, 0.1409599930047989, -0.1156499981880188, 0.07193999737501144, -1.9110100269317627, -1.2656300067901611], [0.595579981803894, 0.0720599964261055, 0.28189998865127563, -0.5831900238990784, -0.18519000709056854, 0.1049799993634224, -0.03815000131726265, -0.0076500000432133675, 0.16519999504089355, -0.682449996471405, 0.47984999418258667, 0.4468599855899811, -0.31540000438690186, -0.06487999856472015, -0.02751000039279461, -0.6892099976539612, 0.30004000663757324, 0.1069599986076355, 0.7784900069236755, -0.07069999724626541, 0.35133999586105347, -1.0916800498962402, 0.03579999879002571, 0.19920000433921814, 0.2625499963760376, 0.1789100021123886, -0.12991000711917877, -0.8275600075721741, 0.09233000129461288, -0.09903000295162201, 0.2368299961090088, -0.3349199891090393, -0.2375900000333786, -0.11229000240564346, 0.6279699802398682, 0.3130899965763092, -0.13934999704360962, 0.04989999905228615, -0.0036200000904500484, -0.04980999976396561, 0.003060000017285347, 0.07446999847888947, -0.20305000245571136, 0.10413999855518341, -0.09820999950170517, -0.041019998490810394, -0.2690800130367279, 0.22223000228405, 0.09119000285863876, 0.013089999556541443, -0.25619998574256897, -0.2531700134277344, -0.12042000144720078, 0.011850000359117985, -1.5490100383758545, -1.2539399862289429], [-0.23486000299453735, -0.455049991607666, -0.4587399959564209, -0.566070020198822, 0.28404000401496887, -0.3631399869918823, -0.19078999757766724, 0.10425999760627747, 0.11292999982833862, -0.5720400214195251, 0.09708999842405319, -0.05056999996304512, 0.1638599932193756, -0.25407999753952026, 0.3322199881076813, -0.731939971446991, -0.25995999574661255, 0.2415899932384491, 0.04843999817967415, -0.095660001039505, 0.16001999378204346, -0.9684200286865234, 0.6720799803733826, -0.0632999986410141, 0.07583999633789062, 0.3234800100326538, -0.39236998558044434, -0.5643100142478943, -0.2550800144672394, 0.5985599756240845, 0.4758700132369995, 0.30090001225471497, -0.15306000411510468, -0.5027199983596802, 0.06464999914169312, 0.24758000671863556, 0.035670001059770584, -0.1938599944114685, -0.11816000193357468, -0.10034000128507614, 0.1833299994468689, -0.0010999999940395355, -0.10215000063180923, 0.14576999843120575, -0.13268999755382538, 0.0509600006043911, -0.1900400072336197, -0.046539999544620514, 0.13075000047683716, 0.00646999990567565, -0.7098000049591064, -0.06763999909162521, -0.054760001599788666, -0.2033499926328659, -1.1256599426269531, -1.1030900478363037], [-0.054349999874830246, 0.26883000135421753, 0.11800000071525574, 0.2940399944782257, -0.2826499938964844, 0.22870999574661255, 0.031029999256134033, 0.9551299810409546, -0.21201999485492706, -1.3266899585723877, -0.4297100007534027, -0.16672000288963318, -0.3301900029182434, 0.06159000098705292, -0.573199987411499, 0.15254999697208405, -0.36368000507354736, -0.5592399835586548, -0.18073000013828278, -0.9153599739074707, -0.11678999662399292, -0.1805099993944168, -0.012269999831914902, -0.41106998920440674, -0.4994699954986572, -0.16235999763011932, -0.15919999778270721, 0.11095000058412552, 0.24014000594615936, -0.3202899992465973, -0.5293899774551392, -0.5850200057029724, 0.08812999725341797, 0.035599999129772186, 0.4175400137901306, 0.19537000358104706, -0.15934999287128448, -0.3619900047779083, 0.28321000933647156, -0.12314999848604202, 0.5082399845123291, -0.2816700041294098, -0.0018500000005587935, -0.09700000286102295, 0.26179999113082886, 0.09109000116586685, -0.09926000237464905, 0.32822999358177185, 0.17554999887943268, 0.1618099957704544, 0.3478100001811981, -0.12071000039577484, -0.46856001019477844, -0.0784899964928627, -2.002779960632324, -0.7181199789047241], [0.03288999944925308, 0.0716399997472763, -0.13907000422477722, 0.9678500294685364, 0.2894200086593628, 0.10565999895334244, 0.2391200065612793, -0.10664000362157822, 1.0702199935913086, 0.0799499973654747, 0.037129998207092285, 0.1843400001525879, 0.5463399887084961, 0.8293300271034241, 0.11889000236988068, -0.060440000146627426, -0.015869999304413795, 0.028030000627040863, 1.299239993095398, -0.12896999716758728, 0.09312000125646591, 0.4014799892902374, 0.14515000581741333, 0.08247999846935272, 0.5989599823951721, 0.2473600059747696, 0.1515599936246872, 0.09245000034570694, 0.15631000697612762, -0.0011099999537691474, 0.6384000182151794, 0.8293700218200684, -0.15376000106334686, 0.6521199941635132, -0.20000000298023224, -0.5375000238418579, -0.10244999825954437, -0.03240000084042549, 0.006670000031590462, -0.055399999022483826, -0.15277999639511108, -0.2998200058937073, 0.12794999778270721, -0.10346999764442444, 0.15384000539779663, -0.01143999956548214, -0.06738000363111496, -0.47293001413345337, -0.2583099901676178, 0.08440999686717987, 0.12182000279426575, -0.05350999906659126, -0.048670001327991486, 0.0368800014257431, -1.8783999681472778, -0.9394599795341492], [0.0822099968791008, 0.2953200042247772, -0.24720999598503113, 0.040300000458955765, -0.5873299837112427, 0.3585500121116638, 0.17764000594615936, 0.059289999306201935, -0.21458999812602997, 0.467849999666214, -0.2712000012397766, -0.10711999982595444, 0.655430018901825, 0.8724499940872192, 0.7707499861717224, 1.082859992980957, 0.5756999850273132, 0.6785399913787842, 0.2533699870109558, 0.5494300127029419, -0.4840100109577179, 0.01623000018298626, 0.31220000982284546, 0.01281999982893467, 0.050289999693632126, -0.4023900032043457, 0.094480000436306, 0.33702999353408813, -0.1562899947166443, -0.27160000801086426, 0.11810000240802765, 0.2824699878692627, 0.26409000158309937, 0.17361000180244446, -0.3050999939441681, -0.274509996175766, -0.012489999644458294, -0.15696999430656433, 0.05820000171661377, -0.1730400025844574, 0.07229000329971313, -0.04941000044345856, 0.3021300137042999, -0.3604399859905243, -0.04896000027656555, -0.3840000033378601, 0.18782000243663788, -0.13774000108242035, 0.009399999864399433, -0.014720000326633453, 0.08781000226736069, -0.009730000048875809, -0.11477000266313553, 0.019220000132918358, -1.4509899616241455, -0.9935500025749207], [0.25745001435279846, 0.4947200119495392, -0.35512998700141907, 0.7746000289916992, -0.040380001068115234, -0.15936000645160675, 0.37059998512268066, -0.25453001260757446, 0.3383300006389618, -0.21142999827861786, 0.18102000653743744, -0.1369899958372116, 0.43000999093055725, -0.4402399957180023, -0.017230000346899033, -0.23095999658107758, 0.2052599936723709, -0.3566400110721588, -0.12274999916553497, 0.068790003657341, -0.3778400123119354, 0.21080000698566437, -0.024960000067949295, -0.2831000089645386, 0.09703999757766724, 0.9427899718284607, 1.3766900300979614, 0.741349995136261, 1.050029993057251, 0.8724700212478638, -0.42548999190330505, 0.4905399978160858, 0.043389998376369476, 0.3594200015068054, -0.031199999153614044, -0.2659299969673157, -0.38600000739097595, 0.07282999902963638, -0.24792000651359558, -0.026739999651908875, -0.26919999718666077, -0.23204000294208527, -0.16557000577449799, 0.014179999940097332, -0.09865999966859818, -0.23816999793052673, -0.026669999584555626, -0.5700799822807312, -0.46057000756263733, -0.11007999628782272, -0.1362999975681305, 0.04681999981403351, -0.2755599915981293, 0.03053000010550022, -0.9335200190544128, -1.0181599855422974], [-0.4242900013923645, -0.026119999587535858, -0.1787099987268448, -0.11311999708414078, -0.32409998774528503, -0.2401999980211258, -0.41764000058174133, -0.011020000092685223, 0.13241000473499298, -0.00803999975323677, -0.037689998745918274, 0.8916800022125244, 0.03020000085234642, -0.018489999696612358, -0.30167001485824585, -0.09047000110149384, 1.455180048942566, 0.1314300000667572, -0.11128000169992447, -0.01826000027358532, -0.05000999942421913, 0.958549976348877, -0.09690000116825104, -0.0709099993109703, 0.36351001262664795, -0.03711999952793121, 1.2652499675750732, -0.050450000911951065, 0.09677000343799591, -0.006779999937862158, 0.35491999983787537, 0.5913500189781189, -0.4110099971294403, -0.10733000189065933, -0.07673999667167664, -0.3632499873638153, -0.19988000392913818, -0.3875499963760376, -0.224590003490448, 0.005160000175237656, -0.08146999776363373, -0.10633999854326248, -0.2540600001811981, -0.28769999742507935, -0.29416000843048096, -0.2979300022125244, -0.10437999665737152, -0.06218999996781349, -0.15463000535964966, -0.13875000178813934, -0.4038099944591522, -0.07418999820947647, -0.46140000224113464, -0.18317000567913055, -1.2167600393295288, -1.0327600240707397], [-1.0330699682235718, -0.34521999955177307, 0.05105999857187271, -1.0079799890518188, -0.1333799958229065, 0.026520000770688057, -0.5772600173950195, -0.2720299959182739, -0.7898100018501282, 0.1313299983739853, -0.11462000012397766, -0.3682500123977661, -0.051430001854896545, -0.5624300241470337, 0.2621900141239166, -0.14218999445438385, 0.7087900042533875, 0.4421499967575073, 0.005609999876469374, -0.6314700245857239, 0.3135699927806854, 0.02135000005364418, -0.16253000497817993, 0.06893999874591827, 0.8863000273704529, -0.14883999526500702, 0.2950100004673004, -0.05386999994516373, 0.4575200080871582, 0.518339991569519, 0.009730000048875809, 0.045990001410245895, -0.6431900262832642, -0.4374699890613556, 0.3062100112438202, 0.29451999068260193, -0.012480000033974648, 0.00018000000272877514, 0.16234000027179718, 0.15015000104904175, -0.16433000564575195, 0.4316299855709076, -0.20942999422550201, 0.1424800008535385, -0.4048900008201599, -0.08313000202178955, -0.025040000677108765, -0.25165000557899475, -0.09617000073194504, -0.41846999526023865, 0.2793000042438507, -0.12155000120401382, 0.24487000703811646, 0.5579500198364258, -2.2464799880981445, -0.6356199979782104], [-0.8553100228309631, 0.004800000227987766, -0.49987998604774475, 0.24313999712467194, -0.3768500089645386, -0.3402999937534332, 0.6104900240898132, 0.009290000423789024, -0.42166000604629517, 0.06055999919772148, 0.3059999942779541, 0.14151999354362488, -0.3219299912452698, -0.5436499714851379, -0.5968199968338013, 0.2227099984884262, -0.0407399982213974, 0.6381400227546692, -0.09282000362873077, -0.4968400001525879, -0.8274800181388855, -0.7577700018882751, -0.3683600127696991, -0.6562600135803223, -0.36625999212265015, -0.31259000301361084, 0.19317999482154846, -0.22949999570846558, -0.7127699851989746, -0.028359999880194664, -0.8245400190353394, 0.016620000824332237, 0.05386999994516373, -0.2388399988412857, -0.5626000165939331, 0.19142000377178192, 0.19913999736309052, -0.2810100018978119, 0.04244999960064888, 0.10079000145196915, 0.1618800014257431, -0.13537000119686127, 0.12492000311613083, 0.3970299959182739, 0.14845000207424164, 0.0016400000313296914, 0.14217999577522278, -0.0414699986577034, 0.15293000638484955, 0.06893999874591827, 0.09241999685764313, -0.5835400223731995, 0.09848000109195709, 0.13460999727249146, -1.609339952468872, -0.9966099858283997], [-0.12314999848604202, 0.1568399965763092, 0.3517700135707855, -0.044929999858140945, 0.27202001214027405, 0.8799200057983398, -0.1073400005698204, 0.03434000164270401, -0.2888599932193756, 0.28494998812675476, 0.6991599798202515, -0.19812999665737152, -0.26330000162124634, -0.3440299928188324, 0.06520000100135803, 1.0614700317382812, 0.023879999294877052, 0.27987998723983765, -0.048020001500844955, -0.12951000034809113, 0.9052799940109253, -0.033149998635053635, -0.6162800192832947, 0.27496999502182007, 0.53507000207901, 0.5456299781799316, -0.5179299712181091, 0.08536999672651291, 0.07247000187635422, -0.243599995970726, -0.162090003490448, -0.32521000504493713, 0.30160000920295715, 0.3180600106716156, 0.3803499937057495, 0.06915999948978424, -0.20532000064849854, 0.0473099984228611, -0.3970400094985962, -0.01080000028014183, 0.17374999821186066, -0.14692999422550201, -0.05138000100851059, -0.48853999376296997, -0.03689999878406525, -0.2702699899673462, -0.25900998711586, -0.009220000356435776, -0.13896000385284424, 0.08156999945640564, -0.4163300096988678, -0.27608001232147217, 0.1106799989938736, -0.27823999524116516, -1.4167699813842773, -1.0538500547409058], [-0.48228999972343445, 0.16955000162124634, -0.5364400148391724, -0.1979999989271164, 0.16319000720977783, 0.33039000630378723, 0.14212000370025635, -0.5085300207138062, 0.0451200008392334, 0.13044999539852142, 0.07109999656677246, -0.006479999981820583, 0.20675000548362732, 0.47699999809265137, -0.17057999968528748, -0.3009999990463257, 0.10074000060558319, -0.21591000258922577, -0.15477000176906586, 0.1772100031375885, 0.20920999348163605, -0.2530600130558014, -0.035739999264478683, 0.20121000707149506, 0.06610000133514404, -0.8218399882316589, -0.7961099743843079, -1.1216200590133667, -0.8938400149345398, -0.268559992313385, -0.3717400133609772, -0.26015999913215637, 0.18410000205039978, 0.1855500042438507, 0.7236199975013733, -0.09736000001430511, -0.07858999818563461, -0.14549000561237335, -0.27142998576164246, -0.20792999863624573, -0.3044399917125702, 0.24626000225543976, -0.003700000001117587, 0.18314999341964722, -0.10259000211954117, -0.1605300009250641, -0.01954999938607216, -0.4175800085067749, -0.10867000371217728, -0.22349999845027924, 0.04774000123143196, 0.013890000060200691, -0.0636100023984909, -0.31975001096725464, -1.8559399843215942, -1.208739995956421], [0.2976999878883362, 0.36274999380111694, 0.6640700101852417, 0.0737999975681305, 0.29561999440193176, -0.26166000962257385, -0.3312399983406067, -0.6759200096130371, -1.0267200469970703, -1.1756700277328491, -0.82218998670578, -0.4158700108528137, -0.04873000085353851, 0.0017800000496208668, 0.28815001249313354, -0.033959999680519104, -0.08005999773740768, 0.10363999754190445, 0.5222600102424622, 0.5012999773025513, -0.007110000122338533, -0.32554998993873596, 0.31810998916625977, 0.046310000121593475, -0.19207000732421875, -0.06866999715566635, -0.15914000570774078, 0.2863200008869171, -0.41332998871803284, -0.2222999930381775, 0.318230003118515, 0.19290000200271606, -0.2901400029659271, -0.13268999755382538, 0.16641999781131744, 0.4212299883365631, -0.3271099925041199, -0.2921200096607208, 0.050540000200271606, -0.23364999890327454, -0.12244000285863876, -0.11254999786615372, 0.15473000705242157, 0.09018000215291977, -0.015939999371767044, 0.09371999651193619, 0.04766000062227249, -0.10864000022411346, 0.008940000087022781, -0.09075000137090683, 0.19884000718593597, 0.09092999994754791, -0.06404999643564224, 0.15106000006198883, -2.2012100219726562, -1.11257004737854], [0.2838599979877472, 0.5095800161361694, 0.2985000014305115, -0.5306699872016907, 0.1243399977684021, -0.07406000047922134, 0.11422000080347061, -0.7037000060081482, -0.5780699849128723, 0.5929200053215027, -0.24095000326633453, 1.6642999649047852, 0.37584999203681946, -0.39052000641822815, 0.44150999188423157, 0.3184100091457367, 0.10898999869823456, 0.4928799867630005, -0.13921000063419342, -0.3450999855995178, 0.4709399938583374, 0.7126399874687195, -0.4995400011539459, 0.7055000066757202, 0.07021000236272812, -0.550849974155426, -0.1598300039768219, 0.4503600001335144, -0.17531000077724457, 0.3059299886226654, -0.7296800017356873, -0.49199000000953674, -0.31411999464035034, -0.16087999939918518, 0.2433599978685379, 0.8618000149726868, 0.12713000178337097, 0.002219999907538295, -0.2702000141143799, 0.27750998735427856, -0.12331999838352203, 0.028869999572634697, 0.014770000241696835, -0.26041001081466675, 0.02864000014960766, -0.04540000110864639, -0.420199990272522, 0.13437999784946442, -0.20934000611305237, 0.22179999947547913, -0.091109998524189, -0.0873199999332428, 0.3525699973106384, -0.06319999694824219, -1.2308399677276611, -0.4247500002384186], [0.30722999572753906, 0.10401000082492828, -0.1726199984550476, 1.066230058670044, 0.5257300138473511, 0.2747200131416321, -0.16140000522136688, -0.05569000169634819, 0.40661999583244324, -0.16252000629901886, -0.16863000392913818, 0.9198700189590454, 0.7689399719238281, 0.2870100140571594, -0.01664000004529953, -0.051750000566244125, -0.6736299991607666, 0.1492999941110611, -0.003759999992325902, -0.2929899990558624, 0.3670099973678589, 0.3357599973678589, -0.33483999967575073, -0.3598000109195709, 0.8062000274658203, 0.2737399935722351, -0.060270000249147415, 0.9940999746322632, -0.3344700038433075, -0.4713599979877472, -0.1718199998140335, -0.015159999951720238, -0.41433998942375183, -1.0165799856185913, 0.2325499951839447, 0.44732001423835754, 0.040380001068115234, -0.40911000967025757, 0.08806999772787094, 0.05666999891400337, -0.10284999758005142, 0.07972999662160873, -0.22039000689983368, -0.277209997177124, 0.18959000706672668, 0.10506000369787216, -0.6357300281524658, -0.01233999989926815, 0.17533999681472778, 0.22908000648021698, -0.013290000148117542, -0.5785700082778931, 0.20280000567436218, -0.07851000130176544, -1.3315199613571167, -0.8246700167655945], [0.12212000042200089, 0.21097999811172485, 0.40494000911712646, -0.5032100081443787, 0.2554999887943268, -0.051330000162124634, -0.20931999385356903, -0.12268999963998795, -0.7322999835014343, 0.05756000056862831, 0.4044100046157837, -0.3529999852180481, 0.18975000083446503, -0.947950005531311, 0.2414799928665161, 0.3556100130081177, -0.39274999499320984, -0.03917999938130379, -0.5283899903297424, 0.18956999480724335, -0.6209200024604797, 0.011420000344514847, 0.032910000532865524, 0.5234900116920471, -0.26809000968933105, -0.2299100011587143, 0.04935000091791153, -0.747439980506897, -0.01817999966442585, 0.03367999941110611, 0.7282800078392029, -0.2988699972629547, 0.31099000573158264, -0.19856999814510345, 0.1428299993276596, -0.009150000289082527, -0.09230999648571014, -0.032930001616477966, -0.11005000025033951, -0.03440999984741211, -0.17051999270915985, 0.20821000635623932, 0.1572899967432022, -0.40933001041412354, 0.1921200007200241, -0.004639999940991402, -0.13999000191688538, -0.004809999838471413, 0.02718999981880188, -0.09983000159263611, -0.2946000099182129, 0.0047599999234080315, -0.3292199969291687, 0.055319998413324356, -1.5270800590515137, -1.3337199687957764], [0.008550000376999378, -0.12906000018119812, -1.0431499481201172, -0.5069100260734558, -0.8611599802970886, -1.1705100536346436, -0.19144999980926514, -0.3478499948978424, -0.23339000344276428, -0.5421599745750427, -0.16436000168323517, -0.4032900035381317, -0.45212000608444214, 0.05349000170826912, -0.07811000198125839, -0.07158000022172928, -0.4148100018501282, -0.03506999835371971, -0.3845599889755249, 0.17350000143051147, -0.5083100199699402, -0.27208998799324036, -0.5112599730491638, -0.9149799942970276, -0.24921999871730804, 0.4163700044155121, 0.5395200252532959, 0.8187999725341797, 0.19130000472068787, 1.270050048828125, -0.15654000639915466, -0.2429099977016449, -0.005900000222027302, 0.3986800014972687, 0.29945001006126404, 1.0169199705123901, 0.01679999940097332, -0.18613000214099884, -0.05982000008225441, 0.1579899936914444, -0.015549999661743641, 0.2797600030899048, -0.11451999843120575, 0.02857000008225441, -0.1532299965620041, -0.04966000095009804, 0.18601000308990479, 0.068060003221035, -0.1737300008535385, 0.2666899859905243, -0.6682800054550171, 0.06838999688625336, -0.34011998772621155, -0.07975000143051147, -0.9524099826812744, -0.8634600043296814], [0.5489799976348877, 0.4303799867630005, 0.49834999442100525, 0.4523099958896637, 0.37634000182151794, 0.22362999618053436, 0.061239998787641525, 0.595770001411438, 0.2121499925851822, 0.5629400014877319, 0.1915300041437149, 0.3500399887561798, 0.6638399958610535, 0.6501700282096863, 0.7400299906730652, 0.4324199855327606, 0.23541000485420227, 0.8172900080680847, 0.373089998960495, 0.6574100255966187, 0.6627600193023682, 0.915120005607605, 0.6549000144004822, 0.297650009393692, 0.24421000480651855, 0.7985900044441223, 0.5018900036811829, 0.6514099836349487, 0.6628400087356567, 0.38148000836372375, 0.8177899718284607, 0.49373000860214233, 0.5240799784660339, 0.4251500070095062, 0.29350000619888306, 0.5870000123977661, 0.40630999207496643, 0.29038000106811523, 0.08614999800920486, -0.27803999185562134, 0.28988999128341675, 0.1166900023818016, 0.26155000925064087, 0.5270799994468689, 0.14914999902248383, -0.13075999915599823, 0.4357199966907501, 0.6161400079727173, 0.6262999773025513, 0.24583999812602997, 0.3907800018787384, -0.060839999467134476, 0.2137099951505661, 0.258650004863739, -1.5853300094604492, -0.40970999002456665], [-0.028060000389814377, -0.06212000176310539, -0.4401699900627136, -0.08173000067472458, 0.8664399981498718, -0.016249999403953552, -0.611810028553009, -0.4179399907588959, -0.224590003490448, 0.9962800145149231, 0.09013999998569489, 0.2111400067806244, 0.11142999678850174, -0.143669992685318, 0.9333000183105469, -0.1537500023841858, -0.11789999902248383, -0.16911999881267548, -0.3325900137424469, 0.8810099959373474, 0.17802999913692474, -0.0647599995136261, 0.3995000123977661, -0.1305299997329712, 0.46733999252319336, -0.10757999867200851, -0.0207700002938509, 0.00872000027447939, 0.008779999800026417, 0.3661699891090393, 0.8126800060272217, 0.9255399703979492, 0.26243001222610474, 0.9420199990272522, -0.22811999917030334, -0.09250999987125397, 0.33548998832702637, -0.3542400002479553, -0.17317000031471252, -0.2744300067424774, -0.15756000578403473, -0.05649999901652336, -0.19044999778270721, -0.4525800049304962, -0.38872000575065613, -0.27316999435424805, -0.19584999978542328, -0.24087999761104584, -0.050689999014139175, -0.2608399987220764, -0.13989999890327454, 0.308459997177124, -0.16267000138759613, -0.17568999528884888, -1.6579400300979614, -0.9535700082778931], [-0.28654998540878296, 0.2596699893474579, 0.06661000102758408, -0.21187999844551086, 0.0582600012421608, -0.11375000327825546, 0.2385299950838089, 0.15682999789714813, 0.18414999544620514, -0.3025299906730652, -0.03564000129699707, -0.0820000022649765, 0.09643000364303589, 0.10137999802827835, 0.00535999983549118, -0.18846000730991364, 0.2761699855327606, 0.17392000555992126, 0.24698999524116516, 0.7703999876976013, 1.0530099868774414, 1.2321100234985352, 0.7652400135993958, 0.2243800014257431, 0.3598800003528595, 0.3052699863910675, -0.19585999846458435, -0.3167699873447418, 0.32043999433517456, -0.07551000267267227, -0.3849700093269348, -0.11324000358581543, 0.4612100124359131, 0.1189500018954277, -0.1067499965429306, -0.1864199936389923, -0.2061299979686737, 0.07785999774932861, -0.06350000202655792, -0.09670999646186829, 0.004639999940991402, -0.3294300138950348, -0.07982999831438065, 0.2856200039386749, -0.125450000166893, 0.03313000127673149, 0.008030000142753124, -0.16610999405384064, 0.28044000267982483, -0.028060000389814377, 0.08517000079154968, -0.17835000157356262, -0.16121000051498413, 0.05716999992728233, -1.6601200103759766, -0.9830700159072876], [0.4446899890899658, -0.39414000511169434, 0.30292001366615295, -0.6601700186729431, -0.24514999985694885, 0.6749799847602844, 0.458050012588501, 0.043790001422166824, -1.0087800025939941, -0.7572199702262878, -0.15343999862670898, 0.2863999903202057, 0.3363499939441681, -0.24265000224113464, 0.19499999284744263, -0.3206300139427185, 0.41495001316070557, 0.3605499863624573, -0.8003699779510498, -0.0006399999838322401, 0.39528998732566833, -0.2979399859905243, -0.9066100120544434, -0.2744300067424774, -0.2916100025177002, 0.37073999643325806, -0.2616199851036072, 0.3037000000476837, 0.21331000328063965, 0.003930000122636557, -0.2877799868583679, -0.4166800081729889, -0.3794499933719635, -0.13152000308036804, -0.0031300000846385956, -0.5565699934959412, -0.19638000428676605, 0.18257999420166016, -0.05383000150322914, 0.05025999993085861, -0.08017999678850174, -0.0997299998998642, 0.13434000313282013, -0.5510799884796143, 0.00749000022187829, 0.012079999782145023, -0.17869000136852264, -0.28578999638557434, -0.11467000097036362, 0.09480000287294388, -0.3299599885940552, 0.13749000430107117, -0.1979299932718277, -0.18145999312400818, -1.8501499891281128, -1.2551300525665283], [-0.3548800051212311, 0.39153000712394714, -0.2232699990272522, -0.7478700280189514, -0.45601001381874084, 0.1269800066947937, -0.3185099959373474, -0.2371000051498413, -0.16261999309062958, 0.23816999793052673, -0.1954600065946579, 0.27184998989105225, -1.0663700103759766, -0.1737000048160553, -0.016259999945759773, -0.45965999364852905, -0.2785800099372864, -0.38398998975753784, -0.8172100186347961, -0.4634700119495392, 0.4189800024032593, -0.08066999912261963, -0.18824000656604767, -0.25523999333381653, -0.17081999778747559, 0.45475998520851135, -0.8638799786567688, -0.24355000257492065, -0.7973399758338928, -0.08278000354766846, 0.3333199918270111, -0.574209988117218, -0.14464999735355377, -0.7849900126457214, 0.16798000037670135, -0.2054000049829483, -0.07181999832391739, 0.1921599954366684, -0.383109986782074, -0.0037499999161809683, -0.04565000161528587, 0.00800000037997961, -0.07129999995231628, 0.11184000223875046, -0.1372700035572052, -0.3503499925136566, 0.06594999879598618, 0.04050000011920929, 0.2696300148963928, -0.08647999912500381, 0.04334999993443489, -0.04349999874830246, -0.12206999957561493, 0.037470001727342606, -1.0375800132751465, -1.2786600589752197], [0.6231600046157837, -0.3152100145816803, 0.3553699851036072, 0.3791100084781647, 0.7950699925422668, -0.022290000692009926, 0.3889999985694885, 0.28621000051498413, 0.11715000122785568, -0.014220000244677067, -0.2002899944782257, -0.3227500021457672, -0.07034999877214432, -0.5423300266265869, 0.42186999320983887, 0.6292399764060974, 0.5461000204086304, 0.7775899767875671, 0.1133899986743927, 0.3091999888420105, -0.4465300142765045, 0.2343900054693222, 0.6735600233078003, 0.1519400030374527, 0.19957000017166138, 0.3992699980735779, 0.20292000472545624, 0.752810001373291, 0.026419999077916145, -0.24549999833106995, 0.850409984588623, 0.8687300086021423, 0.5204300284385681, -0.12466999888420105, -0.674809992313385, 0.1310800015926361, -0.165460005402565, -0.14845000207424164, -0.11320000141859055, 0.2931399941444397, 0.057500001043081284, 0.5028200149536133, -0.11873999983072281, -0.43869999051094055, 0.17615999281406403, 0.03564999997615814, -0.34606000781059265, 0.01996999979019165, -0.2935599982738495, -0.15212999284267426, -0.21952000260353088, 0.22916999459266663, 0.3649100065231323, -0.24067999422550201, -1.9563499689102173, -0.8372700214385986], [-0.1453000009059906, 0.45506998896598816, -0.06261999905109406, 0.09993000328540802, -0.1604599952697754, -0.5148400068283081, 0.7145100235939026, 0.2144400030374527, 0.2922300100326538, 0.15456999838352203, 0.05130999907851219, 0.34369999170303345, -0.20364999771118164, 1.113610029220581, -0.05197000131011009, -0.04180999845266342, 0.31929001212120056, 0.06262999773025513, -0.0012000000569969416, 0.24778999388217926, 0.8958799839019775, 0.06335999816656113, 0.1390099972486496, -0.16064000129699707, 0.12049999833106995, -0.15971000492572784, -0.1401199996471405, 1.2556300163269043, -0.2054399996995926, 0.40797001123428345, -0.5585100054740906, 0.4173800051212311, -0.00863999966531992, 0.10367999970912933, 0.654670000076294, 0.5887399911880493, -0.10626000165939331, -0.33164000511169434, -0.3784799873828888, -0.185139998793602, -0.03976000100374222, -0.3787199854850769, 0.14437000453472137, -0.25130999088287354, -0.21594999730587006, -0.5233799815177917, -0.05961000174283981, -0.0574599988758564, 0.09247999638319016, 0.10197000205516815, -0.04501999914646149, -0.3592900037765503, 0.12488999962806702, 0.015549999661743641, -1.5163099765777588, -1.013700008392334], [0.0727199986577034, -0.13218000531196594, 0.5596500039100647, 0.20927000045776367, -0.1334100067615509, 0.4678399860858917, 0.3015899956226349, -0.5203400254249573, 0.15214000642299652, 0.22032999992370605, 0.5371900200843811, 0.4517099857330322, -0.35273998975753784, -1.052690029144287, -0.6521099805831909, -0.7749000191688538, 0.0987199991941452, 0.1839500069618225, -0.050439998507499695, 0.13640999794006348, 0.7778099775314331, -0.418940007686615, 0.12200000137090683, -0.0997999981045723, -0.22187000513076782, 0.18355000019073486, 0.21547000110149384, -0.1388300061225891, -0.15530000627040863, 0.11502999812364578, -0.1080700010061264, 0.3392300009727478, -0.44569000601768494, -0.0026000000070780516, 0.11823999881744385, 0.0031900000758469105, 0.13378000259399414, 0.019680000841617584, -0.10794000327587128, -0.13736000657081604, 0.011540000326931477, -0.012849999591708183, -0.1523600071668625, -0.22471000254154205, 0.045090001076459885, -0.04952999949455261, 0.0647599995136261, -0.24548999965190887, -0.022339999675750732, -0.20454999804496765, 0.2975099980831146, -0.097850002348423, -0.18862999975681305, -0.08470000326633453, -1.7264399528503418, -1.021340012550354], [-0.3628000020980835, 0.07461000233888626, 0.2531599998474121, -0.20645999908447266, 0.16585999727249146, 0.5232099890708923, -0.7285299897193909, -0.6783699989318848, 0.01363999955356121, -0.2265399992465973, -0.09344000369310379, -0.34762001037597656, 0.026660000905394554, -1.112879991531372, 0.03522999957203865, 0.2685199975967407, -0.2585499882698059, -0.38317999243736267, -0.3710300028324127, -0.07757999747991562, -0.6883400082588196, -0.228410005569458, -0.8994600176811218, -0.17023000121116638, 0.6207900047302246, 0.08448000252246857, -0.06216000020503998, -0.7789199948310852, -0.4704799950122833, 0.3067399859428406, -0.16869999468326569, -0.49775001406669617, -0.1676200032234192, -0.3294900059700012, 0.3106899857521057, -0.16143999993801117, -0.06103000044822693, -0.0648299977183342, 0.049139998853206635, -0.40097999572753906, -0.08799000084400177, -0.029239999130368233, 0.1145000010728836, 0.1089399978518486, 0.08566000312566757, -0.21143999695777893, -0.23653000593185425, 0.1507599949836731, 0.10482999682426453, -0.245059996843338, -0.05657999962568283, 0.1487800031900406, 0.08440999686717987, 0.020800000056624413, -1.835860013961792, -1.0753300189971924], [0.26958000659942627, -0.7198500037193298, 0.5344600081443787, 0.2494100034236908, -0.4408000111579895, -0.8159199953079224, -0.15418000519275665, 0.20759999752044678, 0.028510000556707382, 0.08291000127792358, 0.41032999753952026, 0.266400009393692, 0.02493000030517578, -0.2418300062417984, -0.19537000358104706, 0.30583998560905457, -0.27698999643325806, -0.3660599887371063, -0.41374000906944275, -0.6359599828720093, -0.95346999168396, -0.7942399978637695, -0.7282099723815918, -0.09328000247478485, -0.04771000146865845, -0.41602998971939087, -0.34714001417160034, 0.8371599912643433, -0.10560999810695648, -0.09651999920606613, 0.9828100204467773, 0.598360002040863, -0.3716599941253662, 0.10611999779939651, 0.1200999990105629, -0.02556000091135502, -0.16204999387264252, 0.29488998651504517, -0.06990999728441238, -0.04095999896526337, -0.14745000004768372, -0.02653999999165535, 0.18182000517845154, 0.2898699939250946, -0.041280001401901245, 0.26416000723838806, 0.009990000165998936, 0.028839999809861183, 0.00965999998152256, -0.2576900124549866, -0.012509999796748161, 0.04397999867796898, -0.12370000034570694, 0.041030000895261765, -1.3951799869537354, -1.318120002746582], [0.7843199968338013, 0.3636699914932251, 0.6727100014686584, 0.13147999346256256, 0.05438999831676483, 0.37397998571395874, -0.19300000369548798, 0.36355000734329224, 0.44765999913215637, 0.4651400148868561, 0.3074600100517273, 0.6291700005531311, 0.4078800082206726, 0.6133800148963928, 0.7066400051116943, 0.6029099822044373, 0.6439899802207947, 0.43566998839378357, 0.47321999073028564, 0.5224800109863281, 0.826259970664978, 0.7612299919128418, 0.5722399950027466, 0.18416999280452728, 0.5687299966812134, 0.8711900115013123, 0.40088000893592834, 0.25466999411582947, 0.4909699857234955, 0.4382399916648865, -0.20868000388145447, 0.26249000430107117, 0.7431700229644775, -0.22113999724388123, 0.7102000117301941, 0.8265200257301331, 0.17324000597000122, -0.18817999958992004, 0.10108000040054321, 0.2540000081062317, 0.40591999888420105, 0.40470001101493835, 0.3093299865722656, 0.32743000984191895, 0.3111500144004822, 0.15825000405311584, 0.4825400114059448, 0.3198699951171875, 0.38054001331329346, 0.1845099925994873, 0.2236199975013733, 0.3070499897003174, 0.38019001483917236, 0.2395000010728836, -1.2483999729156494, -0.23553000390529633], [-0.4059099853038788, -0.060169998556375504, -0.6761000156402588, -0.5455300211906433, -0.9707599878311157, -0.3001599907875061, -0.003470000112429261, -0.026520000770688057, -0.18188999593257904, -0.5275400280952454, 0.012529999949038029, -0.09990999847650528, -0.4858500063419342, -0.5887500047683716, -0.39928001165390015, -0.2343199998140335, 0.06720999628305435, -0.6623600125312805, 0.07325000315904617, -0.7680299878120422, -0.877810001373291, -0.7245200276374817, -0.9325399994850159, -0.12796999514102936, -0.5158799886703491, 0.06926000118255615, 0.22394999861717224, -0.6017000079154968, -0.0721300020813942, 0.21692000329494476, -0.6796299815177917, 0.1399500072002411, -0.888670027256012, 0.6033999919891357, -0.02151999995112419, -0.23510000109672546, 0.029680000618100166, 0.25578001141548157, -0.26938000321388245, 0.14810000360012054, -0.054579999297857285, 0.13549000024795532, -0.066880002617836, 0.09751000255346298, 0.2276799976825714, -0.07807999849319458, -0.22729000449180603, 0.23781999945640564, 0.47991999983787537, 0.12972000241279602, 0.4518299996852875, -0.2292100042104721, 0.21806000173091888, 0.13269999623298645, -1.544800043106079, -0.8773400187492371], [0.1447799950838089, -0.08844000101089478, -0.09185999631881714, 0.2518500089645386, -0.3793100118637085, -0.14511999487876892, -0.64410001039505, -1.0353800058364868, -0.7024999856948853, -1.2296299934387207, -0.14149999618530273, 0.4318400025367737, 0.249549999833107, -0.015119999647140503, -0.14815999567508698, 0.5017499923706055, -0.21908999979496002, 0.35120001435279846, 0.18591000139713287, 0.1208299994468689, -0.08897999674081802, -0.027899999171495438, 0.7338899970054626, -0.7378799915313721, -0.05310999974608421, -0.2715199887752533, 0.46285998821258545, 0.06543000042438507, -0.010520000010728836, 0.011140000075101852, 0.30660998821258545, 0.19309000670909882, -0.1837500035762787, -0.09499000012874603, -0.008259999565780163, 0.0844699963927269, -0.16954000294208527, 0.0026599999982863665, -0.12376999855041504, -0.14948999881744385, -0.06216999888420105, -0.15955999493598938, 0.05573999881744385, -0.07670000195503235, -0.21445000171661377, -0.24255000054836273, -0.2030400037765503, 0.10079000145196915, 0.0018700000364333391, -0.09035000205039978, 0.037300001829862595, -0.13696999847888947, -0.18569999933242798, -0.14053000509738922, -2.0171399116516113, -1.1213200092315674], [0.5425099730491638, -0.17558999359607697, -0.03960999846458435, 0.8259999752044678, 0.03807999938726425, -0.25920000672340393, 0.04873000085353851, -0.433789998292923, -0.010130000300705433, 0.2501299977302551, 0.18625999987125397, 0.11131999641656876, -0.3457599878311157, -0.8213099837303162, 0.06703999638557434, -0.060520000755786896, -0.026739999651908875, -0.0030400000978261232, 0.38635000586509705, -1.3000600337982178, -0.37584999203681946, -0.10843999683856964, 0.0502999983727932, -0.31988999247550964, 0.46990999579429626, -1.0756900310516357, -0.288100004196167, 0.22508999705314636, -0.3527500033378601, -0.2959800064563751, 0.2662000060081482, -0.2823300063610077, 0.13944999873638153, -0.0206300001591444, 0.4358699917793274, -0.34150001406669617, 0.19809000194072723, -0.2202499955892563, -0.20840999484062195, -0.11868000030517578, -0.027620000764727592, 0.011719999834895134, -0.1666399985551834, -0.021870000287890434, 0.07822000235319138, -0.1332699954509735, -0.09550999850034714, -0.04506999999284744, 0.27070000767707825, 0.09771999716758728, 0.12728999555110931, 0.10005000233650208, -0.027470000088214874, -0.21468999981880188, -1.9148999452590942, -0.8590800166130066], [-0.14959999918937683, -0.21428999304771423, -0.4377799928188324, 0.3614499866962433, 0.09784000366926193, 0.11736000329256058, -0.06168000027537346, 0.13575999438762665, -0.2257400006055832, 0.015960000455379486, 0.43149998784065247, -0.33386000990867615, -0.10604000091552734, 0.09651999920606613, 0.12473999708890915, -0.011599999852478504, 1.3618099689483643, 0.3402099907398224, 0.2635500133037567, 0.28497999906539917, -0.07780999690294266, -0.3464899957180023, 0.949180006980896, -0.05762000009417534, -0.3499000072479248, -0.19783000648021698, 0.34696000814437866, 0.2362699955701828, 1.3035500049591064, -0.14034000039100647, 0.740090012550354, 0.10681000351905823, -0.014840000309050083, 0.245169997215271, 0.9459499716758728, 0.27316999435424805, 0.10204999893903732, -0.08416999876499176, 0.0625, -0.31828001141548157, -0.1031700000166893, -0.24100999534130096, -0.025709999725222588, -0.0572500005364418, -0.13786999881267548, 0.08130999654531479, -0.24671000242233276, -0.4321500062942505, -0.11935999989509583, -0.22713999450206757, -0.5101699829101562, -0.2151000052690506, -0.05400000140070915, -0.3208500146865845, -1.6225199699401855, -1.0156699419021606], [-0.0589900016784668, 0.08986999839544296, 0.21211999654769897, 0.10976000130176544, -0.04318000003695488, 0.17952999472618103, 0.5981500148773193, 0.029920000582933426, -0.514710009098053, 0.16624000668525696, 0.1414099931716919, 0.14454999566078186, -0.8773999810218811, -0.15931999683380127, 0.27434998750686646, 0.028109999373555183, -0.6897000074386597, -0.026900000870227814, -0.6690199971199036, -0.4869399964809418, 0.09371999651193619, -0.6633399724960327, 0.32899001240730286, -0.43264999985694885, -0.45318999886512756, -0.06375999748706818, -0.8743399977684021, 0.31461000442504883, 0.3108699917793274, 0.026760000735521317, 0.15408000349998474, -0.31084999442100525, 0.33414000272750854, -0.6564800143241882, 0.3393000066280365, 0.1671999990940094, -0.15609000623226166, -0.359250009059906, 0.1398800015449524, 0.29976001381874084, -0.14553000032901764, 0.22277000546455383, -0.10823000222444534, -0.46549999713897705, 0.06601999700069427, 0.045510001480579376, -0.0524200014770031, -0.10764999687671661, 0.34031999111175537, -0.3427799940109253, 0.013620000332593918, -0.16116000711917877, -0.3364500105381012, 0.30660000443458557, -1.962820053100586, -1.2783199548721313], [-0.2111700028181076, -0.010350000113248825, -0.11935999989509583, 0.16729000210762024, 0.6125100255012512, 0.3362500071525574, 0.0523499995470047, 0.3398599922657013, -0.08722999691963196, -0.2553200125694275, 1.0492199659347534, -0.18017999827861786, 0.05276000127196312, -0.21365000307559967, -0.08429999649524689, 0.13544000685214996, 1.1653900146484375, -0.25084999203681946, 0.1479800045490265, 0.03531000018119812, -0.014430000446736813, -0.09882000088691711, 1.2580900192260742, -0.039889998733997345, -0.14440999925136566, 0.20371000468730927, -0.018650000914931297, 0.24945999681949615, 0.9658499956130981, 0.1888599991798401, 0.08583000302314758, -0.1109199970960617, 0.015469999983906746, 0.24973000586032867, 0.7771900296211243, 0.3893299996852875, 0.017899999395012856, -0.18979999423027039, -0.18038000166416168, -0.36647000908851624, -0.24790999293327332, -0.21739999949932098, -0.3658500015735626, -0.025380000472068787, -0.4316900074481964, -0.28773999214172363, -0.1869100034236908, -0.14681999385356903, -0.12035000324249268, -0.03197000175714493, -0.1300099939107895, -0.3394100069999695, -0.34042999148368835, -0.09762000292539597, -1.347409963607788, -1.1610599756240845], [-0.07203999906778336, 0.19271999597549438, -0.036740001291036606, 0.15020999312400818, 0.19339999556541443, -0.16204999387264252, -0.08941999822854996, 0.3896999955177307, 0.20667999982833862, 0.6836299896240234, 0.16440999507904053, 0.16047999262809753, 0.38978999853134155, -0.15028999745845795, 0.2128099948167801, 0.8124399781227112, 0.039650000631809235, -0.33583998680114746, -0.3721599876880646, 0.3886600136756897, 0.06616999953985214, 0.8239099979400635, -0.49364998936653137, 0.0377499982714653, 0.07310999929904938, 0.3142800033092499, 0.15672999620437622, 1.3736900091171265, 0.30480000376701355, 0.14768999814987183, 0.06007999926805496, 0.6403700113296509, 0.10268999636173248, 0.844789981842041, 0.770039975643158, 0.5467699766159058, -0.24895000457763672, -0.3420400023460388, -0.32280001044273376, -0.27726998925209045, -0.05297999829053879, 0.05785999819636345, -0.10374999791383743, 0.18097999691963196, 0.007309999782592058, -0.23627999424934387, 0.0028899998869746923, -0.12394999712705612, 0.11902999877929688, -0.4275699853897095, -0.09188999980688095, -0.31088000535964966, -0.19704000651836395, -0.008500000461935997, -1.1666200160980225, -1.0041600465774536], [-0.01891000010073185, 0.47453999519348145, 0.3080100119113922, -0.16357000172138214, 0.0909700021147728, -0.6102700233459473, 0.47947999835014343, 0.3591800034046173, 0.1919499933719635, 1.3309999704360962, 0.22776000201702118, 0.25839000940322876, -0.24075999855995178, 0.05423999950289726, 0.8166099786758423, -0.11066000163555145, 0.5046399831771851, 0.05293000116944313, -0.07020000368356705, 0.9500200152397156, 0.06332000344991684, -0.24155999720096588, 0.07638999819755554, 0.43511998653411865, 0.7767900228500366, 0.013120000250637531, 0.14552000164985657, 0.14810000360012054, -0.20791000127792358, 0.20970000326633453, 0.3990899920463562, -0.030570000410079956, -0.3077000081539154, 0.48822999000549316, 0.3085100054740906, -0.48385998606681824, 0.06194999814033508, -0.04035999998450279, 0.008209999650716782, -0.11196999996900558, 0.29583999514579773, -0.45890000462532043, 0.08268000185489655, 0.04275999963283539, -0.0003600000054575503, -0.11134999990463257, 0.14696000516414642, -0.046310000121593475, 0.15604999661445618, 0.020840000361204147, 0.08033999800682068, -0.1747100055217743, -0.028759999200701714, -0.15682999789714813, -1.7652699947357178, -0.9059200286865234], [-0.15591000020503998, -0.4152100086212158, -0.11570999771356583, 0.5451499819755554, -0.3082999885082245, -0.8065199851989746, -0.2789500057697296, 0.0744599997997284, 0.30792000889778137, -0.02718999981880188, -0.35547998547554016, 0.19491000473499298, -0.14478999376296997, -0.3181999921798706, -0.5989099740982056, -1.0267900228500366, -0.544409990310669, -0.22179999947547913, 0.33643999695777893, -0.03382999822497368, -0.8411800265312195, 0.22703999280929565, 0.2543500065803528, 0.2302899956703186, 0.1468300074338913, -0.928879976272583, 0.02215000055730343, 0.17149999737739563, -0.36298999190330505, -0.134660005569458, -0.18671999871730804, -0.19136999547481537, -0.10757999867200851, 0.40860000252723694, -0.6014400124549866, 0.4396800100803375, 0.02394000068306923, -0.09018000215291977, 0.14116999506950378, 0.07253000140190125, -0.10537999868392944, -0.30643001198768616, -0.2078399956226349, 0.0626399964094162, 0.1636900007724762, -0.10262999683618546, -0.04909000173211098, -0.1298999935388565, 0.04261000081896782, 0.11022000014781952, -0.14949999749660492, 0.04907999932765961, -0.09036000072956085, -0.16664999723434448, -1.37608003616333, -1.32600998878479], [-0.4634299874305725, 0.41628000140190125, 0.2090499997138977, -0.5379199981689453, -0.33294999599456787, -0.2015099972486496, 0.36515000462532043, -0.23146000504493713, 0.18297000229358673, 0.20218999683856964, -0.3803099989891052, -0.2730199992656708, 0.5078700184822083, 0.05544000118970871, -0.42232999205589294, 0.12536999583244324, -1.0693700313568115, 0.12544000148773193, 0.3006199896335602, 0.07116000354290009, -0.07806000113487244, -0.305869996547699, -0.6743999719619751, 0.1867000013589859, 0.061089999973773956, -0.28299999237060547, -0.806850016117096, -0.1828099936246872, -1.3266199827194214, -0.2971000075340271, -0.477510005235672, -0.7285799980163574, -0.44506001472473145, 0.13451999425888062, -0.257750004529953, -0.2909500002861023, -0.008170000277459621, 0.07227999716997147, 0.060600001364946365, -0.11614000052213669, 0.03666999936103821, -0.1862500011920929, -0.1204100027680397, 0.14386999607086182, 0.23170000314712524, 0.13297000527381897, 0.10412000119686127, 0.032999999821186066, 0.22439999878406525, 0.05583000183105469, 0.10175000131130219, -0.271340012550354, 0.04453999921679497, 0.10745000094175339, -1.6658400297164917, -0.9533699750900269], [-0.425570011138916, 0.9328799843788147, 0.11853999644517899, 0.41944000124931335, 0.18921999633312225, -0.350849986076355, 0.16884000599384308, 0.022929999977350235, 0.9878799915313721, 0.1712300032377243, 0.33118000626564026, -0.14634999632835388, -0.3724200129508972, -0.058639999479055405, -0.14938999712467194, 0.9076200127601624, -0.05925000086426735, -0.4841499924659729, 0.3153800070285797, 0.06549999862909317, -0.11952999979257584, -0.032030001282691956, 1.4769799709320068, -0.03886000066995621, 0.3741999864578247, 0.13630999624729156, 0.21151000261306763, -0.14345000684261322, 0.11855000257492065, 0.6142500042915344, -0.7643600106239319, -0.0760200023651123, 0.19130000472068787, -0.17362000048160553, 0.28251999616622925, 0.2516799867153168, 0.06063999980688095, -0.2196200042963028, -0.16539999842643738, -0.3934899866580963, -0.057110000401735306, 0.06712000072002411, 0.08568000048398972, 0.0371600016951561, -0.11090999841690063, -0.29853999614715576, -0.08701000362634659, -0.05908000096678734, -0.2162099927663803, -0.04851999878883362, -0.06429000198841095, -0.03099999949336052, -0.016580000519752502, -0.09452000260353088, -1.5987399816513062, -1.0892599821090698], [0.5008599758148193, 0.24875999987125397, -0.13767999410629272, 0.033240001648664474, 0.6744499802589417, 0.37220001220703125, 0.2851099967956543, -0.17694999277591705, -0.24446000158786774, 0.34330999851226807, -0.03254999965429306, -0.2906300127506256, 0.29451000690460205, 0.5227800011634827, -0.3745099902153015, 0.1084899976849556, 0.03044000081717968, 0.24550999701023102, -0.6169899702072144, 0.566100001335144, 0.9266999959945679, 0.5735300183296204, 0.45552000403404236, 0.4186899960041046, 0.12308000028133392, -0.6144099831581116, 0.1253100037574768, 0.10238000005483627, 0.008070000447332859, 0.3577600121498108, -0.09126000106334686, 0.09714999794960022, -0.48552998900413513, -0.2437400072813034, 0.6008700132369995, -0.09178999811410904, 0.16513000428676605, -0.06504999846220016, -0.18057000637054443, -0.04918999969959259, -0.4054499864578247, 0.020490000024437904, -0.036979999393224716, -0.22624999284744263, -0.15392999351024628, 0.1786399930715561, -0.15491999685764313, -0.4579800069332123, -0.12793999910354614, 0.09047999978065491, -0.12568999826908112, -0.30671000480651855, -0.03613999858498573, -0.12748999893665314, -2.153330087661743, -0.9990900158882141], [-0.09344000369310379, 0.34338998794555664, 0.8295000195503235, 0.6103600263595581, 0.352510005235672, 0.08539000153541565, 0.2652300000190735, 0.22737999260425568, 0.6077799797058105, 0.35728999972343445, 0.583869993686676, 0.2529900074005127, 0.3571699857711792, 0.5396299958229065, 0.6578800082206726, 0.6525999903678894, 0.32934999465942383, 0.3454500138759613, 0.10876999795436859, 0.39774999022483826, 0.5586000084877014, 0.7703099846839905, 0.6148399710655212, 0.5149999856948853, 0.18615999817848206, 0.4212400019168854, 0.5155799984931946, 0.6503499746322632, 0.37501001358032227, 0.27656999230384827, 0.7038699984550476, 0.5310099720954895, 0.3531700074672699, 0.2156600058078766, 0.40059998631477356, 0.14854000508785248, 0.5106800198554993, 0.29271000623703003, 0.14650000631809235, 0.32763001322746277, 0.22197000682353973, 0.2837600111961365, 0.30583998560905457, -0.10822000354528427, 0.324290007352829, -0.4147000014781952, 0.40459001064300537, 0.36270999908447266, 0.35771000385284424, 0.12761999666690826, 0.6361600160598755, 0.2788900136947632, 0.3116999864578247, 0.17000000178813934, -0.9208400249481201, -0.2482299953699112], [-0.03618000075221062, 0.15557000041007996, -0.06165999919176102, -0.37237000465393066, 0.12026999890804291, -0.4608300030231476, -0.4631099998950958, -0.6667900085449219, 0.330269992351532, 0.0566600002348423, -0.41830000281333923, -0.4542199969291687, -0.015039999969303608, -0.22011999785900116, -0.9533900022506714, -0.4027000069618225, 0.0029100000392645597, -0.2756099998950958, 0.12770000100135803, 0.3723999857902527, 0.35863998532295227, -0.9104499816894531, 0.21393999457359314, 0.2866399884223938, -0.1624400019645691, -0.06370999664068222, -0.1290300041437149, -0.03150999918580055, -0.8657299876213074, -0.3901599943637848, -0.5860900282859802, -0.37619999051094055, -0.04408000037074089, -0.20044000446796417, 0.05776999890804291, -0.3706200122833252, -0.3057299852371216, -0.02993999980390072, 0.10388000309467316, -0.056449998170137405, 0.10334999859333038, -0.03207999840378761, 0.10153000056743622, -0.07158999890089035, 0.23051999509334564, -0.013129999861121178, -0.03658000007271767, 0.08668000251054764, 0.29596999287605286, -0.17163999378681183, 0.1741500049829483, -0.15380999445915222, -0.18402999639511108, 0.15304000675678253, -1.888569951057434, -1.1371500492095947], [0.3855299949645996, 0.20409999787807465, -0.40011000633239746, -0.6815800070762634, -0.692300021648407, 0.7986099720001221, 0.8627700209617615, -0.41874000430107117, -0.0696600005030632, 0.23734000325202942, -1.1079100370407104, 0.5243200063705444, 0.774150013923645, -0.028270000591874123, -0.5237500071525574, -0.369159996509552, 0.10089000314474106, 0.67985999584198, 0.3208799958229065, -0.08268000185489655, -0.5252000093460083, -0.5723699927330017, -0.5019699931144714, 0.23458999395370483, 0.4950999915599823, -0.3081499934196472, -0.4530999958515167, -0.2619900107383728, -0.2840999960899353, 0.33098000288009644, -0.8438400030136108, 0.7143200039863586, -0.05747000128030777, 0.5129899978637695, -0.034279998391866684, 0.281360000371933, -0.4002299904823303, -0.47560998797416687, 0.4036799967288971, 0.12001000344753265, 0.018689999356865883, 0.3637300133705139, 0.22341999411582947, -0.25641998648643494, 0.42441999912261963, 0.22327999770641327, 0.2681399881839752, -0.5345100164413452, 0.06408999860286713, 0.14435000717639923, -0.17928999662399292, -0.17829999327659607, 0.11545000225305557, 0.21424999833106995, -0.8079000115394592, -0.6539599895477295], [0.012409999966621399, 0.16008000075817108, 1.2049399614334106, 1.2006800174713135, -0.08946000039577484, -0.2967199981212616, -0.23035000264644623, 0.13484999537467957, -0.32346999645233154, 0.19870999455451965, -0.5724999904632568, -0.457179993391037, 0.32343998551368713, -0.0025100000202655792, -0.20728999376296997, 0.29622000455856323, 0.27581000328063965, 0.16685999929904938, 0.299809992313385, 0.019120000302791595, -0.14860999584197998, 0.07576999813318253, -0.5744400024414062, -0.36625000834465027, -0.17776000499725342, -0.14063000679016113, 0.25560998916625977, 0.44958001375198364, -0.1333400011062622, 0.222120001912117, 0.4251500070095062, 0.37255001068115234, 0.2888999879360199, -0.41773998737335205, 0.04715999960899353, -0.0003699999942909926, -0.5563899874687195, -0.4484800100326538, -0.43981000781059265, -0.4070099890232086, -0.12306000292301178, -0.28696000576019287, 0.38023999333381653, -0.3307200074195862, -0.673829972743988, -0.07941000163555145, -0.05816999822854996, 0.08540000021457672, -0.6268799901008606, -0.009890000335872173, -0.30395999550819397, -0.5083100199699402, -0.02848000079393387, -0.37599000334739685, -1.5709099769592285, -1.2279200553894043], [-0.20297999680042267, 0.2651900053024292, 0.45032998919487, 0.18387000262737274, 0.4951300024986267, 0.15849000215530396, -0.14576999843120575, -0.2061000019311905, 0.05903000012040138, 0.0053400001488626, 0.5954200029373169, 0.16258999705314636, -0.266539990901947, -0.02539999969303608, 0.7074000239372253, 1.1018500328063965, 0.8032799959182739, -0.06171000003814697, 0.17541000247001648, -0.1124500036239624, 0.8176900148391724, -0.3971000015735626, 0.2585600018501282, 0.25791001319885254, 0.11994999647140503, 1.132140040397644, 0.03661999851465225, -0.12647999823093414, 0.04287000000476837, 0.17302000522613525, 0.24490000307559967, 0.15454000234603882, 0.1434199959039688, 0.24487000703811646, 0.1143300011754036, -0.024289999157190323, -0.146479994058609, -0.08421000093221664, -0.03409000113606453, -0.1639299988746643, 0.16628000140190125, -0.0487699992954731, -0.090549997985363, -0.12444999814033508, 0.15117000043392181, -0.11411000043153763, 0.07738000154495239, -0.06064999848604202, -0.12261000275611877, -0.0635799989104271, 0.0013699999544769526, 0.13708999752998352, 0.15539999306201935, -0.38284000754356384, -1.3122199773788452, -1.1137100458145142], [-0.004670000169426203, -0.27796000242233276, 0.2238599956035614, -0.16096000373363495, -0.18322999775409698, 0.06328000128269196, 0.13779999315738678, -0.42329999804496765, -0.10736999660730362, 0.1678600013256073, -0.7478600144386292, 0.21195000410079956, -0.14687000215053558, 0.6760200262069702, 0.3478800058364868, -1.0663599967956543, -0.3967899978160858, -0.3031800091266632, -0.1764100044965744, -0.12842999398708344, -0.7106599807739258, -0.46399998664855957, -0.5191500186920166, -0.3613100051879883, -0.14587000012397766, -0.686739981174469, 0.26965999603271484, 0.18348999321460724, -0.4143899977207184, -0.6042299866676331, 0.11146000027656555, 0.08879999816417694, -0.17136000096797943, 0.22248999774456024, -0.08511999994516373, 0.044860001653432846, -0.2829599976539612, 0.357340008020401, -0.18915000557899475, -0.13067999482154846, 0.17733000218868256, 0.04628000035881996, 0.21698999404907227, 0.36970001459121704, 0.17139999568462372, -0.36831000447273254, 0.09561000019311905, 0.03627999871969223, -0.14359000325202942, -0.1512800008058548, -0.03946999832987785, 0.20361000299453735, 0.32447001338005066, 0.22314999997615814, -1.30718994140625, -0.9037100076675415], [-0.48837000131607056, 0.3983199894428253, -0.46334001421928406, 0.3950499892234802, 0.2186100035905838, 0.6601099967956543, 0.013969999738037586, 0.9327899813652039, 0.29482001066207886, 0.11956000328063965, -0.043069999665021896, -0.480320006608963, -0.2246599942445755, 1.2087600231170654, -0.14664000272750854, -0.018869999796152115, -0.16101999580860138, -0.047680001705884933, 0.5601199865341187, 0.9454600214958191, -0.6439599990844727, -0.2182299941778183, 0.12645000219345093, 0.08094999939203262, -0.5848299860954285, 0.4864799976348877, -0.07428999990224838, -0.0524200014770031, 0.1489800065755844, 0.0013000000035390258, -0.10169000178575516, 0.913129985332489, -0.24216000735759735, -0.010540000163018703, -0.39458999037742615, 0.28134000301361084, -0.3557400107383728, -0.31001999974250793, -0.1321599930524826, -0.4586699903011322, 0.0921500027179718, -0.03581000119447708, -0.03458999842405319, -0.17552000284194946, -0.3216800093650818, -0.45763999223709106, -0.1500599980354309, -0.04842999950051308, -0.6370199918746948, -0.08099000155925751, -0.26662999391555786, -0.15785999596118927, 0.036990001797676086, -0.28415998816490173, -1.414739966392517, -1.1090699434280396], [-0.35016000270843506, 0.7784600257873535, 0.325300008058548, 0.8053699731826782, 0.331959992647171, 0.3372499942779541, -0.5090600252151489, 0.1664399951696396, 0.003869999898597598, 0.7531599998474121, -0.193340003490448, 0.043960001319646835, -1.1272399425506592, -0.03691000118851662, -0.11864999681711197, 0.06406000256538391, 0.2340099960565567, 0.21900999546051025, -0.9994300007820129, 0.6100900173187256, 0.6568899750709534, -0.175929993391037, 0.6733199954032898, -0.19287000596523285, 0.07491999864578247, 0.016519999131560326, 0.006539999973028898, -0.12455999851226807, 0.27963998913764954, 0.6134600043296814, -0.6128000020980835, -0.3381899893283844, 0.1374099999666214, -0.13304999470710754, -0.15934999287128448, 0.06272999942302704, -0.23921999335289001, 0.41183000802993774, -0.2875699996948242, -0.21943999826908112, -0.4703800082206726, 0.4353399872779846, -0.5636199712753296, -0.3253900110721588, -0.6092900037765503, -0.1432799994945526, 0.08978000283241272, -0.3425599932670593, -0.003599999938160181, -0.5291399955749512, 0.45770999789237976, -0.09171000123023987, -0.3069300055503845, -0.17343999445438385, -1.1157100200653076, -0.8583999872207642], [-0.9496200084686279, -0.002940000034868717, 0.14856000244617462, 0.44811001420021057, -0.3744100034236908, -0.5388799905776978, -0.2612999975681305, -0.1780100017786026, 0.036890000104904175, -0.008379999548196793, 0.2473199963569641, 0.23940999805927277, -0.2664099931716919, -0.3495500087738037, 0.1809699982404709, -0.09550999850034714, 0.09792999923229218, 0.05900999903678894, 0.5217700004577637, 0.9002799987792969, 0.9941200017929077, 0.7922999858856201, 1.1253999471664429, 0.4221000075340271, -0.1991499960422516, 0.31797999143600464, 0.13933999836444855, -0.20226000249385834, 0.06327000260353088, 0.42836999893188477, -0.6184800267219543, -0.10040999948978424, -0.284060001373291, 0.15366999804973602, 0.04433999955654144, 0.11007999628782272, -0.1274999976158142, -0.2732299864292145, -0.5100700259208679, -0.07401999831199646, -0.0628499984741211, 0.0011399999493733048, 0.03167999908328056, -0.28464001417160034, -0.009159999899566174, -0.25630998611450195, -0.06261999905109406, -0.07013999670743942, -0.46303999423980713, 0.05559999868273735, -0.5292500257492065, -0.32260000705718994, 0.14172999560832977, 0.06910999864339828, -1.3211300373077393, -1.1730799674987793], [0.21862000226974487, 0.26420000195503235, 0.22450000047683716, -0.7019500136375427, -0.4220300018787384, -0.355569988489151, 0.42820999026298523, 0.0036800000816583633, 1.2340099811553955, -0.5202599763870239, 0.028629999607801437, 0.33118000626564026, -0.3053799867630005, 0.008080000057816505, 0.5923399925231934, -0.5130400061607361, -0.48201000690460205, -0.3874500095844269, 0.14093999564647675, -0.7761200070381165, 0.7107800245285034, 0.2235099971294403, -0.2730900049209595, -0.07660999894142151, 0.009850000031292439, -0.25648000836372375, 0.1759600043296814, -0.0508200004696846, -0.5068299770355225, -0.5896199941635132, 0.22150999307632446, -0.1521099954843521, 0.2129800021648407, 0.14607000350952148, -0.7059599757194519, -0.8330100178718567, 0.06315000355243683, 0.062150001525878906, 0.05449000000953674, -0.23058000206947327, -0.07872000336647034, -0.2701599895954132, -0.3402999937534332, -0.6034600138664246, 0.03723999857902527, -0.2574000060558319, -0.22845999896526337, -0.00019999999494757503, -0.11795999854803085, 0.1579899936914444, -0.06318999826908112, -0.33917000889778137, 0.007699999958276749, -0.3200800120830536, -1.3357700109481812, -0.9793199896812439], [0.09161999821662903, -0.5393400192260742, -0.1356000006198883, -0.6704400181770325, 0.5696899890899658, -0.37386998534202576, 0.4352400004863739, -0.1152999997138977, -0.6147099733352661, 0.2412700057029724, 0.19199000298976898, 0.41370999813079834, -0.17816999554634094, -0.11728999763727188, -0.5678799748420715, 0.5695199966430664, 0.03248000144958496, -0.1310800015926361, 0.16620999574661255, -0.43665000796318054, -0.7875699996948242, -0.23274999856948853, 0.11613000184297562, 0.5327600240707397, -0.47290998697280884, 0.2908799946308136, -0.4186500012874603, 0.5500800013542175, -0.06007000058889389, 0.590149998664856, -0.35471001267433167, 0.317330002784729, 0.5780900120735168, 0.1984499990940094, -0.18474000692367554, -0.22683000564575195, -0.33048000931739807, 0.06052999943494797, 0.023889999836683273, -0.31957998871803284, -0.3443000018596649, -0.06742999702692032, -0.024399999529123306, -0.02068999968469143, -0.3394300043582916, -0.14348000288009644, 0.00430000014603138, -0.13944999873638153, -0.11840999871492386, -0.47562000155448914, 0.2260199934244156, 0.06537999957799911, -0.11930999904870987, -0.3755599856376648, -1.0728199481964111, -1.2478599548339844], [-0.27865999937057495, 0.4254800081253052, 0.881060004234314, 0.31073999404907227, 0.32374000549316406, 0.7098399996757507, 0.4169600009918213, -0.2611500024795532, 0.0942699983716011, -0.009309999644756317, 0.20884999632835388, -0.07733000069856644, 0.019899999722838402, -0.018290000036358833, 0.951229989528656, 0.7376599907875061, 1.030400037765503, 0.5807300209999084, -0.4271000027656555, 0.017079999670386314, 0.6607400178909302, -0.6463299989700317, -0.18421000242233276, -0.2858099937438965, 0.4596399962902069, 0.5440499782562256, 0.19654999673366547, 0.1556600034236908, 0.2053000032901764, 0.3949199914932251, -0.11597000062465668, 0.16662000119686127, -0.030629999935626984, -0.060419999063014984, 0.2542800009250641, -0.4488599896430969, 0.13239000737667084, -0.4342299997806549, -0.13551999628543854, -0.2603200078010559, -0.13777999579906464, -0.265639990568161, 0.05979999899864197, -0.012769999913871288, -0.1298999935388565, -0.02394000068306923, -0.06538999825716019, -0.13866999745368958, -0.16336999833583832, 0.29291999340057373, 0.047040000557899475, -0.33483999967575073, -0.14973999559879303, -0.21679000556468964, -1.2508699893951416, -0.6359699964523315], [0.09730000048875809, 0.04568000137805939, 0.35326001048088074, -0.11993999779224396, -0.4570600092411041, -0.06102000176906586, 0.3663800060749054, -0.20160000026226044, -0.0031799999997019768, 0.21930000185966492, -1.1723999977111816, 0.34720999002456665, 0.08044999837875366, 0.2204499989748001, 0.04194999858736992, -1.103909969329834, -0.03348999843001366, -0.09296999871730804, 0.07553000003099442, -0.12445999681949615, -0.8391500115394592, 0.15756000578403473, 0.1828099936246872, 0.3323799967765808, -0.11903999745845795, -1.0199099779129028, 0.25707998871803284, 0.09917999804019928, -0.029740000143647194, -0.3011699914932251, -0.03381999954581261, 0.1599700003862381, -0.2777000069618225, -0.41422998905181885, -0.18347999453544617, -0.3542400002479553, -0.030549999326467514, -0.12403000146150589, -0.23356999456882477, 0.12706999480724335, -0.3335399925708771, -0.2723099887371063, -0.010879999957978725, 0.13909000158309937, -0.01882999949157238, -0.3626900017261505, 0.2494799941778183, -0.13371999561786652, 0.13006000220775604, -0.41324999928474426, -0.10030999779701233, -0.0790800005197525, -0.0036200000904500484, 0.05000000074505806, -1.2980999946594238, -1.186169981956482], [0.45320001244544983, -0.44971001148223877, 0.08021999895572662, 0.21789999306201935, -0.0442500002682209, 0.327890008687973, -0.1537500023841858, 0.052000001072883606, -1.1209700107574463, 0.21667000651359558, 1.1763700246810913, 0.02044999971985817, 0.6580600142478943, 0.09792999923229218, 0.03530000150203705, -0.715969979763031, -0.019120000302791595, 0.2581000030040741, -0.220210000872612, 0.3449600040912628, 0.40580999851226807, -0.15445999801158905, -1.0269399881362915, -0.2918899953365326, 0.22281000018119812, 0.004540000110864639, -0.1309099942445755, 0.4610399901866913, -0.23756000399589539, -0.03320999816060066, 0.5371999740600586, -0.2702699899673462, 0.5159199833869934, 0.18084999918937683, -0.2308499962091446, 0.09775000065565109, 0.015350000001490116, -0.18463000655174255, -0.2624000012874603, -0.22909000515937805, -0.2039799988269806, 0.1694200038909912, 0.047839999198913574, 0.024769999086856842, -0.03558000177145004, 0.14056000113487244, -0.001069999998435378, -0.0710500031709671, -0.1472100019454956, -0.05496000126004219, -0.2860899865627289, 0.02434000000357628, -0.15735000371932983, -0.03488999977707863, -1.7947800159454346, -1.310539960861206], [0.17889000475406647, 0.06063999980688095, -0.2514899969100952, 0.07999999821186066, 0.2981500029563904, 0.17574000358581543, -0.2960300147533417, 0.006550000049173832, 0.13898000121116638, -0.8203200101852417, 0.2121800035238266, -0.8879899978637695, 0.7031700015068054, -0.16635000705718994, -0.6607999801635742, -0.8642299771308899, -0.43209999799728394, -0.2541399896144867, -0.30689001083374023, -0.4196000099182129, 0.02858000062406063, -0.23097999393939972, 0.06300000101327896, 0.8535500168800354, 0.10363999754190445, -0.16377000510692596, -0.009440000168979168, -0.483599990606308, 0.07338999956846237, -0.47780001163482666, 0.2827099859714508, 0.1489199995994568, -0.7610999941825867, -0.04083999991416931, -0.3644700050354004, -1.3042000532150269, -0.14593000710010529, 0.047120001167058945, -0.21619999408721924, 0.2465600073337555, -0.10924000293016434, -0.28554001450538635, 0.022520000115036964, 0.4652000069618225, -0.15045000612735748, 0.006659999955445528, 0.3564299941062927, -0.1617400050163269, 0.14474999904632568, -0.13662000000476837, -0.1170400008559227, -0.2721700072288513, 0.35405999422073364, -0.3377099931240082, -1.2481000423431396, -0.9892699718475342], [0.28902000188827515, -0.19191999733448029, 0.6049399971961975, -0.0938199982047081, 0.2493000030517578, -0.17020000517368317, -0.03669999912381172, -0.14148999750614166, 0.08466999977827072, 0.48183000087738037, 0.38315001130104065, 0.1523600071668625, -0.07840999960899353, 0.16899000108242035, -0.26791998744010925, -0.10131999850273132, 1.3971999883651733, -0.512179970741272, -0.4855799973011017, -0.151869997382164, -0.1490200012922287, 0.5318700075149536, 0.43560001254081726, 0.3312099874019623, 0.23117999732494354, -0.054499998688697815, 0.8290500044822693, -0.20148000121116638, -0.06598000228404999, -0.23765000700950623, 0.1832599937915802, 0.272599995136261, 0.34408000111579895, 0.5396299958229065, -0.12411999702453613, -0.27232998609542847, 0.020059999078512192, 0.09657999873161316, -0.18238000571727753, -0.25102999806404114, 0.07169999927282333, -0.19402000308036804, -0.05806000158190727, -0.127360001206398, -0.0806799978017807, -0.31839999556541443, -0.16832999885082245, -0.18400000035762787, -0.269540011882782, -0.23864999413490295, -0.09594999998807907, -0.3064799904823303, 0.039319999516010284, 0.10362999886274338, -1.6397099494934082, -0.9947199821472168], [-0.19978000223636627, 0.5025699734687805, 0.08555000275373459, 0.29965001344680786, 0.35245999693870544, 0.07412999868392944, -0.6039299964904785, -0.10938999801874161, 0.1786700040102005, 0.44356998801231384, 0.09292999655008316, -0.9681199789047241, 0.34217000007629395, -0.12717999517917633, 0.3154900074005127, -0.13665999472141266, -0.8622499704360962, 0.19248999655246735, -0.018330000340938568, -0.7655799984931946, -0.2870999872684479,